{"learner":{"attributes":{"scikit_learn":"{\"_estimator_type\": \"classifier\"}"},"feature_names":["Gender","Age","Transaction_Amount","Account_Balance","Account_Type_Business","Account_Type_Checking","Account_Type_Savings","Transaction_Type_Bill Payment","Transaction_Type_Credit","Transaction_Type_Debit","Transaction_Type_Transfer","Transaction_Type_Withdrawal","Merchant_Category_Clothing","Merchant_Category_Electronics","Merchant_Category_Entertainment","Merchant_Category_Groceries","Merchant_Category_Health","Merchant_Category_Restaurant","Device_Type_ATM","Device_Type_Desktop","Device_Type_Mobile","Device_Type_POS"],"feature_types":["int","int","float","float","float","float","float","float","float","float","float","float","float","float","float","float","float","float","float","float","float","float"],"gradient_booster":{"model":{"gbtree_model_param":{"num_parallel_tree":"1","num_trees":"200"},"iteration_indptr":[0,1,2,3,4,5,6,7,8,9,10,11,12,13,14,15,16,17,18,19,20,21,22,23,24,25,26,27,28,29,30,31,32,33,34,35,36,37,38,39,40,41,42,43,44,45,46,47,48,49,50,51,52,53,54,55,56,57,58,59,60,61,62,63,64,65,66,67,68,69,70,71,72,73,74,75,76,77,78,79,80,81,82,83,84,85,86,87,88,89,90,91,92,93,94,95,96,97,98,99,100,101,102,103,104,105,106,107,108,109,110,111,112,113,114,115,116,117,118,119,120,121,122,123,124,125,126,127,128,129,130,131,132,133,134,135,136,137,138,139,140,141,142,143,144,145,146,147,148,149,150,151,152,153,154,155,156,157,158,159,160,161,162,163,164,165,166,167,168,169,170,171,172,173,174,175,176,177,178,179,180,181,182,183,184,185,186,187,188,189,190,191,192,193,194,195,196,197,198,199,200],"tree_info":[0,0,0,0,0,0,0,0,0,0,0,0,0,0,0,0,0,0,0,0,0,0,0,0,0,0,0,0,0,0,0,0,0,0,0,0,0,0,0,0,0,0,0,0,0,0,0,0,0,0,0,0,0,0,0,0,0,0,0,0,0,0,0,0,0,0,0,0,0,0,0,0,0,0,0,0,0,0,0,0,0,0,0,0,0,0,0,0,0,0,0,0,0,0,0,0,0,0,0,0,0,0,0,0,0,0,0,0,0,0,0,0,0,0,0,0,0,0,0,0,0,0,0,0,0,0,0,0,0,0,0,0,0,0,0,0,0,0,0,0,0,0,0,0,0,0,0,0,0,0,0,0,0,0,0,0,0,0,0,0,0,0,0,0,0,0,0,0,0,0,0,0,0,0,0,0,0,0,0,0,0,0,0,0,0,0,0,0,0,0,0,0,0,0,0,0,0,0,0,0],"trees":[{"base_weights":[5.290135E-1,6.1575866E-1,-1.2992753E0,7.0775694E-1,-1.1009363E0,-9.313079E-1,-2.6292338E0,8.075312E-1,-1.0090073E0,-8.2497627E-1,-2.7049265E0,-1.7810477E0,1.1937624E-2,-3.061049E0,-1.7065006E0,9.202679E-1,-9.7481036E-1,-7.4022245E-1,-2.6055386E0,-1.4084698E0,1.1936784E-2,-2.9842663E0,-1.859841E0,-1.537957E0,-3.415688E0,-3.6394699E0,-2.649664E0,1.1851388E-2,-3.0074615E0,9.644386E-3,4.934271E-4,-6.9629326E-3,-2.6695784E-2,-1.2252514E-2,1.19359E-2,-2.9364143E-2,-1.6179662E-2,-1.1672784E-2,-3.1588078E-2,-3.285559E-2,-2.2745706E-2,1.1670862E-2,-2.5543923E-2,-1.988274E-2,1.1916946E-2,-4.0232196E-2,-2.8351966E-2,-3.0716373E-2,-3.9933227E-2,-3.0508127E-2,-1.5241417E-2,-1.4668971E-2,-3.3024617E-2],"categories":[],"categories_nodes":[],"categories_segments":[],"categories_sizes":[],"default_left":[0,0,0,0,0,0,0,0,0,0,0,0,0,0,0,0,0,0,0,0,0,0,0,0,0,0,0,0,0,0,0,0,0,0,0,0,0,0,0,0,0,0,0,0,0,0,0,0,0,0,0,0,0],"id":0,"left_children":[1,3,5,7,9,11,13,15,17,19,21,23,-1,25,27,29,31,33,35,37,-1,39,41,43,45,47,49,-1,51,-1,-1,-1,-1,-1,-1,-1,-1,-1,-1,-1,-1,-1,-1,-1,-1,-1,-1,-1,-1,-1,-1,-1,-1],"loss_changes":[2.0213082E4,1.9217043E4,2.8228594E3,1.9782156E4,2.7373633E3,8.1706865E3,4.9307812E2,2.1931523E4,2.720228E3,6.2233965E3,2.0881836E2,1.2789844E3,0E0,1.927749E2,1.511855E3,3.9488516E3,3.063122E3,5.0953535E3,2.9380713E2,1.7264263E3,0E0,1.3810791E2,4.828432E2,3.4629536E3,1.3585938E2,5.823535E1,2.2145557E2,0E0,1.2095654E2,0E0,0E0,0E0,0E0,0E0,0E0,0E0,0E0,0E0,0E0,0E0,0E0,0E0,0E0,0E0,0E0,0E0,0E0,0E0,0E0,0E0,0E0,0E0,0E0],"parents":[2147483647,0,0,1,1,2,2,3,3,4,4,5,5,6,6,7,7,8,8,9,9,10,10,11,11,13,13,14,14,15,15,16,16,17,17,18,18,19,19,21,21,22,22,23,23,24,24,25,25,26,26,28,28],"right_children":[2,4,6,8,10,12,14,16,18,20,22,24,-1,26,28,30,32,34,36,38,-1,40,42,44,46,48,50,-1,52,-1,-1,-1,-1,-1,-1,-1,-1,-1,-1,-1,-1,-1,-1,-1,-1,-1,-1,-1,-1,-1,-1,-1,-1],"split_conditions":[9.9568105E-1,9.963608E-1,9.962126E-1,9.955656E-1,9.9626744E-1,3.8978201E-3,3.7725044E-3,9.9594307E-1,9.961155E-1,3.965569E-3,4.0825894E-3,9.9556637E-1,1.1937624E-2,4.57447E4,9.961155E-1,9.963333E-1,9.957444E-1,3.7725044E-3,3.7414075E-3,9.963333E-1,1.1936784E-2,3.7414075E-3,9.8076576E-1,3.7414075E-3,5.6740254E4,1.609079E4,3.7414075E-3,1.1851388E-2,1.177958E4,9.644386E-3,4.934271E-4,-6.9629326E-3,-2.6695784E-2,-1.2252514E-2,1.19359E-2,-2.9364143E-2,-1.6179662E-2,-1.1672784E-2,-3.1588078E-2,-3.285559E-2,-2.2745706E-2,1.1670862E-2,-2.5543923E-2,-1.988274E-2,1.1916946E-2,-4.0232196E-2,-2.8351966E-2,-3.0716373E-2,-3.9933227E-2,-3.0508127E-2,-1.5241417E-2,-1.4668971E-2,-3.3024617E-2],"split_indices":[14,17,6,12,21,6,18,13,18,21,8,10,0,2,18,7,20,18,10,7,0,10,8,10,3,2,10,0,2,0,0,0,0,0,0,0,0,0,0,0,0,0,0,0,0,0,0,0,0,0,0,0,0],"split_type":[0,0,0,0,0,0,0,0,0,0,0,0,0,0,0,0,0,0,0,0,0,0,0,0,0,0,0,0,0,0,0,0,0,0,0,0,0,0,0,0,0,0,0,0,0,0,0,0,0,0,0,0,0],"sum_hessian":[1.2744474E5,1.2167252E5,5.7722217E3,1.15484266E5,6.188255E3,4.5226216E3,1.2496E3,1.09141734E5,6.3425283E3,5.281166E3,9.0708875E2,3.2308728E3,1.2917489E3,8.4966254E2,3.9993747E2,1.0264944E5,6.4923003E3,5.4298467E3,9.1268134E2,4.097177E3,1.1839895E3,6.798391E2,2.272496E2,2.814294E3,4.165788E2,3.4987708E2,4.9978543E2,1.2412794E2,2.7580954E2,9.769455E4,4.954887E3,5.5771636E3,9.151366E2,4.3413403E3,1.0885065E3,6.82158E2,2.305233E2,3.6024382E3,4.9473846E2,4.7468704E2,2.051521E2,4.228534E1,1.8496426E2,2.4159934E3,3.9830063E2,2.0065076E2,2.1592804E2,1.3804117E2,2.118359E2,3.6720044E2,1.32585E2,4.5286236E1,2.305233E2],"tree_param":{"num_deleted":"0","num_feature":"22","num_nodes":"53","size_leaf_vector":"1"}},{"base_weights":[5.2120954E-1,6.0808134E-1,-1.3102065E0,7.0103717E-1,-1.2144254E0,-9.4651264E-1,-2.5780644E0,8.048066E-1,-1.1054738E0,-8.41396E-1,-2.6252978E0,-1.7980075E0,1.1914415E-2,-3.0149004E0,-1.6604189E0,9.1795075E-1,-1.0193448E0,-7.6460403E-1,-2.330667E0,-1.4531289E0,1.1917613E-2,-3.0672548E0,-1.7244804E0,-1.2868519E0,-2.5547016E0,-3.6252286E0,-2.637819E0,1.1830918E-2,-2.9168065E0,1.0454642E-2,-9.914822E-3,-7.398367E-3,-2.6299966E-2,-1.4331801E-2,1.1942897E-2,-2.095352E-2,-3.6725968E-2,-2.4719164E-2,-8.769593E-3,-1.9000174E-2,-3.3287678E-2,1.1849192E-2,-3.4070764E-2,-2.2533324E-2,1.1946126E-2,-2.866321E-2,-1.7068747E-2,-3.177685E-2,-4.1705325E-2,-2.9824512E-2,-1.6520794E-2,-3.0294329E-2,4.083307E-3],"categories":[],"categories_nodes":[],"categories_segments":[],"categories_sizes":[],"default_left":[0,0,0,0,0,0,0,0,0,0,0,0,0,0,0,0,0,0,0,0,0,0,0,0,0,0,0,0,0,0,0,0,0,0,0,0,0,0,0,0,0,0,0,0,0,0,0,0,0,0,0,0,0],"id":1,"left_children":[1,3,5,7,9,11,13,15,17,19,21,23,-1,25,27,29,31,33,35,37,-1,39,41,43,45,47,49,-1,51,-1,-1,-1,-1,-1,-1,-1,-1,-1,-1,-1,-1,-1,-1,-1,-1,-1,-1,-1,-1,-1,-1,-1,-1],"loss_changes":[2.0229816E4,2.0565922E4,2.6528037E3,2.1652602E4,3.0983877E3,8.151084E3,5.0931055E2,2.254443E4,2.6186743E3,5.798703E3,4.8498242E2,1.2350977E3,0E0,1.9020508E2,1.4896958E3,2.5042258E4,2.870109E3,6.432622E3,4.2341357E2,2.1012246E3,0E0,2.4546191E2,1.9993972E3,4.590376E3,3.3587402E2,6.6993164E1,1.785874E2,0E0,1.0939966E2,0E0,0E0,0E0,0E0,0E0,0E0,0E0,0E0,0E0,0E0,0E0,0E0,0E0,0E0,0E0,0E0,0E0,0E0,0E0,0E0,0E0,0E0,0E0,0E0],"parents":[2147483647,0,0,1,1,2,2,3,3,4,4,5,5,6,6,7,7,8,8,9,9,10,10,11,11,13,13,14,14,15,15,16,16,17,17,18,18,19,19,21,21,22,22,23,23,24,24,25,25,26,26,28,28],"right_children":[2,4,6,8,10,12,14,16,18,20,22,24,-1,26,28,30,32,34,36,38,-1,40,42,44,46,48,50,-1,52,-1,-1,-1,-1,-1,-1,-1,-1,-1,-1,-1,-1,-1,-1,-1,-1,-1,-1,-1,-1,-1,-1,-1,-1],"split_conditions":[9.9568105E-1,9.9669874E-1,9.962126E-1,9.963608E-1,9.962126E-1,3.8978201E-3,3.7725044E-3,9.9632275E-1,9.9594307E-1,3.8978201E-3,3.7725044E-3,9.966146E-1,1.1914415E-2,4.249975E4,9.922489E-1,9.955656E-1,9.961155E-1,3.8366832E-3,9.889021E-1,3.8366832E-3,1.1917613E-2,1.372263E4,9.922489E-1,3.7314217E-3,4.2098057E-3,2.111769E4,3.7414075E-3,1.1830918E-2,9.8214484E4,1.0454642E-2,-9.914822E-3,-7.398367E-3,-2.6299966E-2,-1.4331801E-2,1.1942897E-2,-2.095352E-2,-3.6725968E-2,-2.4719164E-2,-8.769593E-3,-1.9000174E-2,-3.3287678E-2,1.1849192E-2,-3.4070764E-2,-2.2533324E-2,1.1946126E-2,-2.866321E-2,-1.7068747E-2,-3.177685E-2,-4.1705325E-2,-2.9824512E-2,-1.6520794E-2,-3.0294329E-2,4.083307E-3],"split_indices":[14,16,6,17,6,6,18,15,4,6,18,5,0,2,18,12,18,4,7,4,0,2,18,5,9,2,10,0,2,0,0,0,0,0,0,0,0,0,0,0,0,0,0,0,0,0,0,0,0,0,0,0,0],"split_type":[0,0,0,0,0,0,0,0,0,0,0,0,0,0,0,0,0,0,0,0,0,0,0,0,0,0,0,0,0,0,0,0,0,0,0,0,0,0,0,0,0,0,0,0,0,0,0,0,0,0,0,0,0],"sum_hessian":[1.2714678E5,1.2138943E5,5.757346E3,1.15499086E5,5.890344E3,4.475317E3,1.2820295E3,1.0922552E5,6.2735664E3,4.6598843E3,1.2304598E3,3.200711E3,1.2746058E3,8.6701184E2,4.150177E2,1.02846875E5,6.3786455E3,4.9093306E3,1.3642356E3,3.5823257E3,1.0775587E3,8.238563E2,4.0660355E2,1.9119008E3,1.2888102E3,3.278132E2,5.391986E2,1.271974E2,2.8782028E2,9.6409055E4,6.437819E3,5.4366445E3,9.420007E2,3.660321E3,1.2490096E3,1.1628794E3,2.0135625E2,1.2929069E3,2.2894187E3,1.5230852E2,6.715478E2,1.490958E2,2.5750775E2,1.3760492E3,5.358515E2,9.4068134E2,3.481288E2,1.837954E2,1.440178E2,3.9801865E2,1.4118E2,2.7847687E2,9.343419E0],"tree_param":{"num_deleted":"0","num_feature":"22","num_nodes":"53","size_leaf_vector":"1"}},{"base_weights":[5.1994115E-1,6.403909E-1,-7.500462E-1,7.8324294E-1,-6.50343E-1,-4.2722714E-1,-2.048924E0,5.2452165E-1,1.1915456E-2,-3.1808457E-1,-2.1141074E0,-1.2402132E0,1.1910046E-2,-1.5224316E0,-2.8244863E0,3.5827443E-2,1.1915071E-2,-1.0755118E0,1.1911729E-2,-2.4398482E0,-1.2142732E0,-7.8698194E-1,-1.9693848E0,-1.2721956E0,-3.4513345E0,-3.1406589E0,-1.9260393E0,1.8945669E-3,-1.774668E-2,-2.0000014E-2,-5.590934E-3,-2.2748286E-2,-3.6044072E-2,1.1866914E-2,-2.6440183E-2,-1.9432945E-2,1.1908282E-2,-2.2652535E-2,-1.0155148E-2,-1.6612107E-2,1.1839074E-2,-2.6115103E-4,-3.692052E-2,-1.0928724E-2,-3.2593455E-2,1.1695867E-2,-2.8669335E-2],"categories":[],"categories_nodes":[],"categories_segments":[],"categories_sizes":[],"default_left":[0,0,0,0,0,0,0,0,0,0,0,0,0,0,0,0,0,0,0,0,0,0,0,0,0,0,0,0,0,0,0,0,0,0,0,0,0,0,0,0,0,0,0,0,0,0,0],"id":2,"left_children":[1,3,5,7,9,11,13,15,-1,17,19,21,-1,23,25,27,-1,29,-1,31,33,35,37,39,41,43,45,-1,-1,-1,-1,-1,-1,-1,-1,-1,-1,-1,-1,-1,-1,-1,-1,-1,-1,-1,-1],"loss_changes":[1.9407172E4,2.1366324E4,4.6074844E3,1.1020488E4,5.615324E3,1.1584016E4,8.889336E2,2.0816932E4,0E0,1.0760914E4,6.2313477E2,1.9352412E3,0E0,6.2558813E2,2.4488623E2,1.0252758E4,0E0,2.991185E3,0E0,2.9299902E2,1.9588481E3,8.271399E3,6.314912E2,1.1073158E3,1.2299634E2,1.5486523E2,6.806426E2,0E0,0E0,0E0,0E0,0E0,0E0,0E0,0E0,0E0,0E0,0E0,0E0,0E0,0E0,0E0,0E0,0E0,0E0,0E0,0E0],"parents":[2147483647,0,0,1,1,2,2,3,3,4,4,5,5,6,6,7,7,9,9,10,10,11,11,13,13,14,14,15,15,17,17,19,19,20,20,21,21,22,22,23,23,24,24,25,25,26,26],"right_children":[2,4,6,8,10,12,14,16,-1,18,20,22,-1,24,26,28,-1,30,-1,32,34,36,38,40,42,44,46,-1,-1,-1,-1,-1,-1,-1,-1,-1,-1,-1,-1,-1,-1,-1,-1,-1,-1,-1,-1],"split_conditions":[9.957444E-1,9.9616325E-1,9.9594307E-1,3.7393358E-3,9.962126E-1,3.8366832E-3,1E0,4.0212907E-3,1.1915456E-2,3.8978201E-3,3.639205E-3,9.962126E-1,1.1910046E-2,9.8016745E-1,3.7414075E-3,9.9556637E-1,1.1915071E-2,3.8366832E-3,1.1911729E-2,9.9669874E-1,9.9248964E-1,3.8978201E-3,3.6374654E-3,3.7414075E-3,7.40924E3,8.04339E3,9.720377E-1,1.8945669E-3,-1.774668E-2,-2.0000014E-2,-5.590934E-3,-2.2748286E-2,-3.6044072E-2,1.1866914E-2,-2.6440183E-2,-1.9432945E-2,1.1908282E-2,-2.2652535E-2,-1.0155148E-2,-1.6612107E-2,1.1839074E-2,-2.6115103E-4,-3.692052E-2,-1.0928724E-2,-3.2593455E-2,1.1695867E-2,-2.8669335E-2],"split_indices":[20,19,4,19,6,4,0,20,0,6,11,6,0,10,10,10,0,4,0,16,11,6,15,10,3,3,10,0,0,0,0,0,0,0,0,0,0,0,0,0,0,0,0,0,0,0,0],"split_type":[0,0,0,0,0,0,0,0,0,0,0,0,0,0,0,0,0,0,0,0,0,0,0,0,0,0,0,0,0,0,0,0,0,0,0,0,0,0,0,0,0,0,0,0,0,0,0],"sum_hessian":[1.2686527E5,1.15875734E5,1.0989539E4,1.0432946E5,1.1546276E4,8.802998E3,2.1865408E3,6.3864168E4,4.0465293E4,9.411245E3,2.1350315E3,5.859479E3,2.9435193E3,1.3041666E3,8.8237396E2,3.685898E4,2.7005188E4,6.2666084E3,3.1446362E3,1.5663134E3,5.687182E2,3.6147427E3,2.2447363E3,1.1558749E3,1.4829182E2,6.5084076E2,2.3153322E2,3.397678E4,2.8821982E3,2.2449094E3,4.021699E3,1.3744984E3,1.9181488E2,2.1232755E2,3.5639066E2,2.2811196E3,1.333623E3,1.712258E3,5.3247833E2,9.981106E2,1.5776425E2,9.810131E0,1.3848169E2,3.6214508E1,6.146262E2,5.391267E1,1.7762056E2],"tree_param":{"num_deleted":"0","num_feature":"22","num_nodes":"47","size_leaf_vector":"1"}},{"base_weights":[5.1724267E-1,6.0331434E-1,-1.2346109E0,6.9565177E-1,-1.1509663E0,-8.917952E-1,-2.406646E0,7.9867715E-1,-1.0771923E0,-1.7782712E0,-4.515516E-1,-1.6896576E0,1.1873574E-2,-2.7410634E0,-1.6565036E0,9.131537E-1,-1.0051669E0,-8.5351706E-1,-2.8351774E0,-2.1781342E0,-1.0207846E0,1.1904862E-2,-1.9281541E0,-2.0606167E0,-7.8365046E-1,-3.2732549E0,-2.3715699E0,1.1793279E-2,-2.83943E0,1.0419357E-2,-9.974472E-3,-6.5883314E-3,-2.3646109E-2,-1.3227109E-2,1.1933289E-2,-1.6389877E-2,-3.1911645E-2,-1.9059336E-2,-2.9120041E-2,1.188236E-2,-2.885183E-2,-2.321063E-2,-9.640631E-3,-2.4285996E-2,-1.3257397E-2,1.1938658E-2,-2.4981184E-2,-2.8575264E-2,-3.704677E-2,-2.1767577E-2,-3.3468913E-2,-4.1021677E-3,-2.9828167E-2],"categories":[],"categories_nodes":[],"categories_segments":[],"categories_sizes":[],"default_left":[0,0,0,0,0,0,0,0,0,0,0,0,0,0,0,0,0,0,0,0,0,0,0,0,0,0,0,0,0,0,0,0,0,0,0,0,0,0,0,0,0,0,0,0,0,0,0,0,0,0,0,0,0],"id":3,"left_children":[1,3,5,7,9,11,13,15,17,19,21,23,-1,25,27,29,31,33,35,37,39,-1,41,43,45,47,49,-1,51,-1,-1,-1,-1,-1,-1,-1,-1,-1,-1,-1,-1,-1,-1,-1,-1,-1,-1,-1,-1,-1,-1,-1,-1],"loss_changes":[1.9009047E4,1.9464906E4,2.3700098E3,2.0850406E4,2.635522E3,7.582157E3,3.3048145E2,2.2278477E4,2.4629722E3,9.5713477E2,6.8941597E3,1.1083779E3,0E0,1.7357422E2,1.3932113E3,2.4961773E4,3.029789E3,5.3446143E3,2.9593896E2,4.0838086E2,4.518098E3,0E0,5.648218E2,6.302744E2,3.2612603E3,5.671826E1,9.68208E1,0E0,1.0071362E2,0E0,0E0,0E0,0E0,0E0,0E0,0E0,0E0,0E0,0E0,0E0,0E0,0E0,0E0,0E0,0E0,0E0,0E0,0E0,0E0,0E0,0E0,0E0,0E0],"parents":[2147483647,0,0,1,1,2,2,3,3,4,4,5,5,6,6,7,7,8,8,9,9,10,10,11,11,13,13,14,14,15,15,16,16,17,17,18,18,19,19,20,20,22,22,23,23,24,24,25,25,26,26,28,28],"right_children":[2,4,6,8,10,12,14,16,18,20,22,24,-1,26,28,30,32,34,36,38,40,-1,42,44,46,48,50,-1,52,-1,-1,-1,-1,-1,-1,-1,-1,-1,-1,-1,-1,-1,-1,-1,-1,-1,-1,-1,-1,-1,-1,-1,-1],"split_conditions":[9.9568105E-1,9.9669874E-1,9.962126E-1,9.963608E-1,3.8366832E-3,3.8978201E-3,3.7725044E-3,9.9594307E-1,9.963333E-1,4.0212907E-3,9.9594307E-1,4.0825894E-3,1.1873574E-2,4.608196E4,9.961155E-1,9.9632275E-1,9.9594307E-1,4.255608E-3,2.096371E4,9.92635E-1,9.957444E-1,1.1904862E-2,3.639205E-3,4.2098057E-3,9.958804E-1,2.111769E4,9.341829E-1,1.1793279E-2,2.7555442E3,1.0419357E-2,-9.974472E-3,-6.5883314E-3,-2.3646109E-2,-1.3227109E-2,1.1933289E-2,-1.6389877E-2,-3.1911645E-2,-1.9059336E-2,-2.9120041E-2,1.188236E-2,-2.885183E-2,-2.321063E-2,-9.640631E-3,-2.4285996E-2,-1.3257397E-2,1.1938658E-2,-2.4981184E-2,-2.8575264E-2,-3.704677E-2,-2.1767577E-2,-3.3468913E-2,-4.1021677E-3,-2.9828167E-2],"split_indices":[14,16,6,17,4,6,18,13,7,20,4,8,0,2,18,15,4,7,3,19,20,0,11,9,8,2,7,0,2,0,0,0,0,0,0,0,0,0,0,0,0,0,0,0,0,0,0,0,0,0,0,0,0],"split_type":[0,0,0,0,0,0,0,0,0,0,0,0,0,0,0,0,0,0,0,0,0,0,0,0,0,0,0,0,0,0,0,0,0,0,0,0,0,0,0,0,0,0,0,0,0,0,0,0,0,0,0,0,0],"sum_hessian":[1.260613E5,1.2015836E5,5.9029385E3,1.14150586E5,6.0077695E3,4.568447E3,1.3344918E3,1.078818E5,6.2687896E3,3.1663386E3,2.8414312E3,3.301647E3,1.2667998E3,9.211739E2,4.1331796E2,1.01444375E5,6.437424E3,5.5625327E3,7.0625684E2,2.0711445E3,1.095194E3,1.3454423E3,1.4959889E3,2.341613E3,9.600338E2,3.7425928E2,5.469146E2,1.2166156E2,2.916564E2,9.5038836E4,6.405534E3,5.1315806E3,1.3058434E3,4.5255137E3,1.0370194E3,1.632632E2,5.4299365E2,1.5134033E3,5.577413E2,5.014348E2,5.9375916E2,1.0618368E3,4.3415216E2,1.558769E3,7.82844E2,4.4595746E2,5.1407635E2,1.9447871E2,1.7978056E2,4.585542E2,8.836042E1,1.6470976E1,2.7518542E2],"tree_param":{"num_deleted":"0","num_feature":"22","num_nodes":"53","size_leaf_vector":"1"}},{"base_weights":[5.14189E-1,6.3457394E-1,-7.2860724E-1,7.7833486E-1,-6.867519E-1,-4.1467085E-1,-1.9702922E0,9.571472E-1,-6.4759547E-1,-3.6426198E-1,-1.997091E0,-1.207086E0,1.187053E-2,-1.503777E0,-2.6674592E0,1.18805235E-2,-6.383723E-1,-1.2413633E0,-3.6178064E-2,-1.0858029E0,1.189452E-2,-1.7969464E0,-3.514713E0,-1.0235873E0,-2.8245091E0,-1.2596493E0,-3.7425056E0,-2.9056334E0,-1.8725282E0,-4.301174E-3,-2.5929004E-2,-1.0245129E-2,-2.8141866E-2,1.1890832E-2,-1.6296353E-2,-8.740986E-3,-2.699172E-2,-2.1430973E-2,1.1827771E-2,-3.2675974E-2,-4.80519E-2,-1.3587385E-2,1.1881012E-2,-3.1671472E-2,-1.829583E-2,-1.6190289E-2,1.1820373E-2,-1.5010265E-2,-4.0007804E-2,-3.2029968E-2,-2.209031E-2,1.171719E-2,-2.8446166E-2],"categories":[],"categories_nodes":[],"categories_segments":[],"categories_sizes":[],"default_left":[0,0,0,0,0,0,0,0,0,0,0,0,0,0,0,0,0,0,0,0,0,0,0,0,0,0,0,0,0,0,0,0,0,0,0,0,0,0,0,0,0,0,0,0,0,0,0,0,0,0,0,0,0],"id":4,"left_children":[1,3,5,7,9,11,13,15,17,19,21,23,-1,25,27,-1,29,31,33,35,-1,37,39,41,43,45,47,49,51,-1,-1,-1,-1,-1,-1,-1,-1,-1,-1,-1,-1,-1,-1,-1,-1,-1,-1,-1,-1,-1,-1,-1,-1],"loss_changes":[1.882175E4,2.178646E4,4.329972E3,2.6374246E4,4.7550684E3,1.1258466E4,7.251133E2,3.3862125E4,4.184449E3,1.0127739E4,6.6877637E2,1.758331E3,0E0,7.305808E2,1.6447363E2,0E0,4.728896E3,1.9915088E3,1.1091116E4,2.104649E3,0E0,2.0299761E3,6.6546875E1,3.953273E3,2.0013281E2,1.0677133E3,7.028284E1,1.3559082E2,6.239257E2,0E0,0E0,0E0,0E0,0E0,0E0,0E0,0E0,0E0,0E0,0E0,0E0,0E0,0E0,0E0,0E0,0E0,0E0,0E0,0E0,0E0,0E0,0E0,0E0],"parents":[2147483647,0,0,1,1,2,2,3,3,4,4,5,5,6,6,7,7,8,8,9,9,10,10,11,11,13,13,14,14,16,16,17,17,18,18,19,19,21,21,22,22,23,23,24,24,25,25,26,26,27,27,28,28],"right_children":[2,4,6,8,10,12,14,16,18,20,22,24,-1,26,28,-1,30,32,34,36,-1,38,40,42,44,46,48,50,52,-1,-1,-1,-1,-1,-1,-1,-1,-1,-1,-1,-1,-1,-1,-1,-1,-1,-1,-1,-1,-1,-1,-1,-1],"split_conditions":[9.957444E-1,9.961155E-1,9.9594307E-1,9.9616325E-1,9.9594307E-1,3.8366832E-3,1E0,9.9626744E-1,3.8366832E-3,3.8366832E-3,9.9214906E-1,9.9669874E-1,1.187053E-2,9.9594307E-1,3.639205E-3,1.18805235E-2,9.963333E-1,9.963333E-1,9.9594307E-1,9.960929E-1,1.189452E-2,3.6374654E-3,8.120059E4,3.8275488E-3,4.2098057E-3,3.6619438E-3,1.074493E4,3.7414075E-3,9.9248964E-1,-4.301174E-3,-2.5929004E-2,-1.0245129E-2,-2.8141866E-2,1.1890832E-2,-1.6296353E-2,-8.740986E-3,-2.699172E-2,-2.1430973E-2,1.1827771E-2,-3.2675974E-2,-4.80519E-2,-1.3587385E-2,1.1881012E-2,-3.1671472E-2,-1.829583E-2,-1.6190289E-2,1.1820373E-2,-1.5010265E-2,-4.0007804E-2,-3.2029968E-2,-2.209031E-2,1.171719E-2,-2.8446166E-2],"split_indices":[20,18,4,19,4,4,0,21,4,4,15,16,0,13,11,0,7,7,4,11,0,15,3,16,9,13,3,10,11,0,0,0,0,0,0,0,0,0,0,0,0,0,0,0,0,0,0,0,0,0,0,0,0],"split_type":[0,0,0,0,0,0,0,0,0,0,0,0,0,0,0,0,0,0,0,0,0,0,0,0,0,0,0,0,0,0,0,0,0,0,0,0,0,0,0,0,0,0,0,0,0,0,0,0,0,0,0,0,0],"sum_hessian":[1.2579796E5,1.1468897E5,1.1108997E4,1.0343554E5,1.1253426E4,8.868181E3,2.2408164E3,9.191027E4,1.1525266E4,9.031856E3,2.2215686E3,5.933144E3,2.9350364E3,1.3443741E3,8.964424E2,8.029077E4,1.1619506E4,5.8465024E3,5.678763E3,6.1678325E3,2.8640247E3,1.9646533E3,2.5691522E2,5.3300737E3,6.030703E2,1.213597E3,1.3077705E2,6.8773157E2,2.0871083E2,1.0501764E4,1.1177424E3,5.1395474E3,7.069551E2,3.2104202E3,2.468343E3,5.453741E3,7.140912E2,1.7604274E3,2.0422594E2,2.1858928E2,3.8325947E1,4.628998E3,7.010758E2,4.4696036E2,1.5610995E2,1.058185E3,1.5541199E2,1.42157E1,1.16561356E2,4.7946216E2,2.0826938E2,5.0465343E1,1.5824548E2],"tree_param":{"num_deleted":"0","num_feature":"22","num_nodes":"53","size_leaf_vector":"1"}},{"base_weights":[5.0999546E-1,6.312347E-1,-7.4316883E-1,7.771032E-1,-6.953493E-1,-4.2814457E-1,-1.9771044E0,9.560369E-1,-6.1745757E-1,-3.7843192E-1,-1.9402452E0,-1.2107425E0,1.184748E-2,-1.5442611E0,-2.5853138E0,1.1858281E-2,-6.0970163E-1,-4.122216E-1,-2.4964285E0,-1.1001462E0,1.1871794E-2,-2.2085426E0,-1.0540224E0,-7.8424835E-1,-1.888071E0,-1.2972522E0,-3.309873E0,-2.8523054E0,-1.7826955E0,-2.9297017E-3,-1.9519959E-2,-8.182507E-3,1.1901251E-2,-2.1555547E-2,-3.4232236E-2,-6.4362227E-3,-1.8833514E-2,-1.994186E-2,-3.392723E-2,1.1856113E-2,-2.7274512E-2,-1.8602E-2,1.18862735E-2,-2.1388175E-2,-1.0475776E-2,-1.644278E-2,1.1805071E-2,-3.819175E-2,-1.830259E-2,-3.0462421E-2,-2.0973086E-2,1.1672996E-2,-2.6300848E-2],"categories":[],"categories_nodes":[],"categories_segments":[],"categories_sizes":[],"default_left":[0,0,0,0,0,0,0,0,0,0,0,0,0,0,0,0,0,0,0,0,0,0,0,0,0,0,0,0,0,0,0,0,0,0,0,0,0,0,0,0,0,0,0,0,0,0,0,0,0,0,0,0,0],"id":5,"left_children":[1,3,5,7,9,11,13,15,17,19,21,23,-1,25,27,-1,29,31,33,35,-1,37,39,41,43,45,47,49,51,-1,-1,-1,-1,-1,-1,-1,-1,-1,-1,-1,-1,-1,-1,-1,-1,-1,-1,-1,-1,-1,-1,-1,-1],"loss_changes":[1.9034041E4,2.2104027E4,4.2950366E3,2.5680297E4,4.463882E3,1.1115565E4,5.876367E2,3.2816812E4,4.5121587E3,1.0194684E4,5.436006E2,1.7112588E3,0E0,5.693933E2,1.9482959E2,0E0,4.962363E3,6.8661553E3,3.566411E2,2.206794E3,0E0,4.4037695E2,2.0101523E3,7.728576E3,4.8040283E2,9.956061E2,1.14182495E2,9.586621E1,5.918545E2,0E0,0E0,0E0,0E0,0E0,0E0,0E0,0E0,0E0,0E0,0E0,0E0,0E0,0E0,0E0,0E0,0E0,0E0,0E0,0E0,0E0,0E0,0E0,0E0],"parents":[2147483647,0,0,1,1,2,2,3,3,4,4,5,5,6,6,7,7,8,8,9,9,10,10,11,11,13,13,14,14,16,16,17,17,18,18,19,19,21,21,22,22,23,23,24,24,25,25,26,26,27,27,28,28],"right_children":[2,4,6,8,10,12,14,16,18,20,22,24,-1,26,28,-1,30,32,34,36,-1,38,40,42,44,46,48,50,52,-1,-1,-1,-1,-1,-1,-1,-1,-1,-1,-1,-1,-1,-1,-1,-1,-1,-1,-1,-1,-1,-1,-1,-1],"split_conditions":[9.957444E-1,9.961155E-1,9.9594307E-1,9.9626744E-1,9.9594307E-1,3.8366832E-3,1E0,9.9616325E-1,9.9556637E-1,3.8366832E-3,4.356545E-3,9.962126E-1,1.184748E-2,9.8016745E-1,3.7414075E-3,1.1858281E-2,9.962126E-1,3.7414075E-3,9.9594307E-1,9.962126E-1,1.1871794E-2,9.9556637E-1,9.935555E-1,3.8978201E-3,3.6851163E-3,3.7414075E-3,3.6619438E-3,3.6851163E-3,9.2037296E-1,-2.9297017E-3,-1.9519959E-2,-8.182507E-3,1.1901251E-2,-2.1555547E-2,-3.4232236E-2,-6.4362227E-3,-1.8833514E-2,-1.994186E-2,-3.392723E-2,1.1856113E-2,-2.7274512E-2,-1.8602E-2,1.18862735E-2,-2.1388175E-2,-1.0475776E-2,-1.644278E-2,1.1805071E-2,-3.819175E-2,-1.830259E-2,-3.0462421E-2,-2.0973086E-2,1.1672996E-2,-2.6300848E-2],"split_indices":[20,18,4,21,4,4,0,19,10,4,17,6,0,10,10,0,6,10,4,6,0,10,17,6,12,10,13,12,10,0,0,0,0,0,0,0,0,0,0,0,0,0,0,0,0,0,0,0,0,0,0,0,0],"split_type":[0,0,0,0,0,0,0,0,0,0,0,0,0,0,0,0,0,0,0,0,0,0,0,0,0,0,0,0,0,0,0,0,0,0,0,0,0,0,0,0,0,0,0,0,0,0,0,0,0,0,0,0,0],"sum_hessian":[1.2527531E5,1.1422494E5,1.1050368E4,1.02909625E5,1.1315315E4,8.80404E3,2.246328E3,9.120728E4,1.1702341E4,9.020293E3,2.2950227E3,5.927961E3,2.8760796E3,1.3144291E3,9.318987E2,7.953483E4,1.167246E4,1.0551087E4,1.1512534E3,6.174345E3,2.8459475E3,1.7605398E3,5.344828E2,3.6388438E3,2.2891172E3,1.1546311E3,1.59798E2,6.973655E2,2.3453314E2,9.445008E3,2.227452E3,8.418387E3,2.1327007E3,8.441152E2,3.0713824E2,3.9018252E3,2.2725203E3,1.492971E3,2.675689E2,2.2869728E2,3.0578552E2,2.3547083E3,1.2841355E3,1.7619309E3,5.2718634E2,1.0130794E3,1.4155171E2,1.1770222E2,4.2095795E1,5.524281E2,1.4493744E2,5.2252007E1,1.8228114E2],"tree_param":{"num_deleted":"0","num_feature":"22","num_nodes":"53","size_leaf_vector":"1"}},{"base_weights":[5.0897026E-1,6.0770816E-1,-9.7914445E-1,7.202552E-1,-9.5205086E-1,-6.547721E-1,-2.1753285E0,8.496561E-1,-8.873409E-1,-6.066269E-1,-2.2493718E0,-1.4368187E0,1.183945E-2,-2.5145564E0,-1.123041E0,1.0031611E0,-8.718593E-1,-6.320241E-1,-2.4200227E0,-1.328451E0,1.1860777E-2,-2.5440388E0,-1.291708E0,-2.1769683E0,-9.796803E-1,-2.81356E0,-1.8397338E0,1.1798148E-2,-2.7154005E0,1.1851472E-2,-7.458717E-3,-5.6092762E-3,-2.0235704E-2,-1.0903835E-2,1.1845773E-2,-2.6708262E-2,-1.4675769E-2,-1.0696108E-2,-2.666804E-2,-2.8240718E-2,-1.7425677E-2,1.1774009E-2,-2.5906751E-2,-2.4842868E-2,-1.2091802E-2,1.1835257E-2,-1.9742465E-2,-2.6762286E-2,-3.436411E-2,1.1728764E-2,-2.7858462E-2,-2.3293607E-2,-4.0509574E-2],"categories":[],"categories_nodes":[],"categories_segments":[],"categories_sizes":[],"default_left":[0,0,0,0,0,0,0,0,0,0,0,0,0,0,0,0,0,0,0,0,0,0,0,0,0,0,0,0,0,0,0,0,0,0,0,0,0,0,0,0,0,0,0,0,0,0,0,0,0,0,0,0,0],"id":6,"left_children":[1,3,5,7,9,11,13,15,17,19,21,23,-1,25,27,29,31,33,35,37,-1,39,41,43,45,47,49,-1,51,-1,-1,-1,-1,-1,-1,-1,-1,-1,-1,-1,-1,-1,-1,-1,-1,-1,-1,-1,-1,-1,-1,-1,-1],"loss_changes":[1.8361826E4,2.0572621E4,3.0156924E3,2.2738203E4,3.5331138E3,8.799923E3,5.8915283E2,2.6733453E4,3.1850396E3,8.063493E3,4.646162E2,1.4504717E3,0E0,2.4770264E2,1.4923147E3,2.9564055E4,2.964793E3,5.8146455E3,2.7376123E2,1.5360073E3,0E0,2.7942578E2,1.2608674E3,4.842788E2,5.7162E3,6.492871E1,1.1082992E3,0E0,1.1449963E2,0E0,0E0,0E0,0E0,0E0,0E0,0E0,0E0,0E0,0E0,0E0,0E0,0E0,0E0,0E0,0E0,0E0,0E0,0E0,0E0,0E0,0E0,0E0,0E0],"parents":[2147483647,0,0,1,1,2,2,3,3,4,4,5,5,6,6,7,7,8,8,9,9,10,10,11,11,13,13,14,14,15,15,16,16,17,17,18,18,19,19,21,21,22,22,23,23,24,24,25,25,26,26,28,28],"right_children":[2,4,6,8,10,12,14,16,18,20,22,24,-1,26,28,30,32,34,36,38,-1,40,42,44,46,48,50,-1,52,-1,-1,-1,-1,-1,-1,-1,-1,-1,-1,-1,-1,-1,-1,-1,-1,-1,-1,-1,-1,-1,-1,-1,-1],"split_conditions":[9.960929E-1,9.963333E-1,9.962126E-1,9.9556637E-1,9.966146E-1,3.8978201E-3,3.6619438E-3,9.958804E-1,9.9626744E-1,3.7314217E-3,3.6619438E-3,3.7314217E-3,1.183945E-2,3.7393358E-3,9.880732E-1,9.961869E-1,9.962126E-1,3.965569E-3,3.6851163E-3,9.9626744E-1,1.1860777E-2,3.6374654E-3,9.920002E-1,3.8275488E-3,9.966146E-1,9.9097013E-1,9.6821856E-1,1.1798148E-2,5.5E1,1.1851472E-2,-7.458717E-3,-5.6092762E-3,-2.0235704E-2,-1.0903835E-2,1.1845773E-2,-2.6708262E-2,-1.4675769E-2,-1.0696108E-2,-2.666804E-2,-2.8240718E-2,-1.7425677E-2,1.1774009E-2,-2.5906751E-2,-2.4842868E-2,-1.2091802E-2,1.1835257E-2,-1.9742465E-2,-2.6762286E-2,-3.436411E-2,1.1728764E-2,-2.7858462E-2,-2.3293607E-2,-4.0509574E-2],"split_indices":[11,7,6,10,5,6,13,8,21,5,13,5,0,19,13,9,6,21,12,21,0,15,13,16,5,12,19,0,1,0,0,0,0,0,0,0,0,0,0,0,0,0,0,0,0,0,0,0,0,0,0,0,0],"split_type":[0,0,0,0,0,0,0,0,0,0,0,0,0,0,0,0,0,0,0,0,0,0,0,0,0,0,0,0,0,0,0,0,0,0,0,0,0,0,0,0,0,0,0,0,0,0,0,0,0,0,0,0,0],"sum_hessian":[1.24962E5,1.1718711E5,7.7748926E3,1.0930086E5,7.8862485E3,6.1175327E3,1.65736E3,1.0115872E5,8.14214E3,6.2291475E3,1.6571014E3,4.292189E3,1.8253433E3,1.2522728E3,4.0508716E2,9.28774E4,8.281319E3,6.980696E3,1.1614441E3,4.4411846E3,1.7879629E3,1.2659272E3,3.911743E2,1.6373711E3,2.654818E3,8.6557874E2,3.866941E2,1.6570506E2,2.393821E2,8.412459E4,8.752805E3,6.5220303E3,1.7592894E3,5.5745435E3,1.4061525E3,9.179264E2,2.4351776E2,3.7229563E3,7.18228E2,9.3627155E2,3.2965564E2,1.3488159E2,2.562927E2,1.2415525E3,3.9581857E2,8.360969E2,1.8187212E3,7.1354706E2,1.5203166E2,9.236043E1,2.9433368E2,1.8783339E2,5.1548706E1],"tree_param":{"num_deleted":"0","num_feature":"22","num_nodes":"53","size_leaf_vector":"1"}},{"base_weights":[5.0286883E-1,5.8921957E-1,-1.202739E0,6.818594E-1,-1.1337751E0,-8.6449647E-1,-2.3390641E0,7.8544706E-1,-1.0331724E0,-7.935009E-1,-2.3502078E0,-1.5111543E0,1.1839026E-2,-1.4361212E0,-2.613891E0,9.0067554E-1,-9.7143567E-1,-7.007982E-1,-2.2016275E0,-1.3392727E0,1.1815056E-2,-2.6895463E0,-1.5975999E0,-1.0343713E0,-2.2385023E0,-1.1535776E0,-2.7912903E0,-2.8606017E0,-1.8177445E0,1.032195E-2,-9.651579E-3,-6.374596E-3,-2.143114E-2,-1.4128536E-2,1.1888245E-2,-2.612804E-2,-1.3635632E-2,-8.198235E-3,-2.2267073E-2,-1.6920228E-2,-2.909177E-2,1.1763183E-2,-2.8691523E-2,-2.0761935E-2,1.1787446E-2,-2.5456859E-2,-1.5477038E-2,-1.623462E-2,1.1674249E-2,-3.1323846E-2,-1.8823488E-2,-3.873559E-2,-2.7266392E-2,1.1796935E-2,-2.9800259E-2],"categories":[],"categories_nodes":[],"categories_segments":[],"categories_sizes":[],"default_left":[0,0,0,0,0,0,0,0,0,0,0,0,0,0,0,0,0,0,0,0,0,0,0,0,0,0,0,0,0,0,0,0,0,0,0,0,0,0,0,0,0,0,0,0,0,0,0,0,0,0,0,0,0,0,0],"id":7,"left_children":[1,3,5,7,9,11,13,15,17,19,21,23,-1,25,27,29,31,33,35,37,-1,39,41,43,45,47,49,51,53,-1,-1,-1,-1,-1,-1,-1,-1,-1,-1,-1,-1,-1,-1,-1,-1,-1,-1,-1,-1,-1,-1,-1,-1,-1,-1],"loss_changes":[1.8300184E4,1.887757E4,2.2993477E3,1.9938977E4,2.4959487E3,6.115877E3,3.3693115E2,2.1426816E4,2.4812456E3,5.0860195E3,3.3244678E2,1.2144487E3,0E0,1.20292114E2,2.0129639E2,2.437425E4,2.5479355E3,6.700496E3,4.8414404E2,1.7020254E3,0E0,1.9386084E2,1.4573599E3,4.893367E3,2.9068652E2,2.9486118E2,1.1139343E1,9.8112305E1,8.795453E2,0E0,0E0,0E0,0E0,0E0,0E0,0E0,0E0,0E0,0E0,0E0,0E0,0E0,0E0,0E0,0E0,0E0,0E0,0E0,0E0,0E0,0E0,0E0,0E0,0E0,0E0],"parents":[2147483647,0,0,1,1,2,2,3,3,4,4,5,5,6,6,7,7,8,8,9,9,10,10,11,11,13,13,14,14,15,15,16,16,17,17,18,18,19,19,21,21,22,22,23,23,24,24,25,25,26,26,27,27,28,28],"right_children":[2,4,6,8,10,12,14,16,18,20,22,24,-1,26,28,30,32,34,36,38,-1,40,42,44,46,48,50,52,54,-1,-1,-1,-1,-1,-1,-1,-1,-1,-1,-1,-1,-1,-1,-1,-1,-1,-1,-1,-1,-1,-1,-1,-1,-1,-1],"split_conditions":[9.9568105E-1,9.9669874E-1,9.966146E-1,9.963608E-1,9.962126E-1,3.7314217E-3,1.869512E4,9.9594307E-1,9.966146E-1,3.8978201E-3,3.7725044E-3,9.962126E-1,1.1839026E-2,9.3132234E-1,3.639205E-3,9.9632275E-1,9.966146E-1,3.7314217E-3,3.7725044E-3,9.966146E-1,1.1815056E-2,1.372263E4,9.922489E-1,3.8978201E-3,3.7725044E-3,3.965569E-3,3.639205E-3,2.5E1,9.8540986E-1,1.032195E-2,-9.651579E-3,-6.374596E-3,-2.143114E-2,-1.4128536E-2,1.1888245E-2,-2.612804E-2,-1.3635632E-2,-8.198235E-3,-2.2267073E-2,-1.6920228E-2,-2.909177E-2,1.1763183E-2,-2.8691523E-2,-2.0761935E-2,1.1787446E-2,-2.5456859E-2,-1.5477038E-2,-1.623462E-2,1.1674249E-2,-3.1323846E-2,-1.8823488E-2,-3.873559E-2,-2.7266392E-2,1.1796935E-2,-2.9800259E-2],"split_indices":[14,16,5,17,6,5,2,13,5,6,18,6,0,21,11,15,5,5,18,5,0,2,18,6,18,21,11,1,11,0,0,0,0,0,0,0,0,0,0,0,0,0,0,0,0,0,0,0,0,0,0,0,0,0,0],"split_type":[0,0,0,0,0,0,0,0,0,0,0,0,0,0,0,0,0,0,0,0,0,0,0,0,0,0,0,0,0,0,0,0,0,0,0,0,0,0,0,0,0,0,0,0,0,0,0,0,0,0,0,0,0,0,0],"sum_hessian":[1.2424808E5,1.18261445E5,5.9866357E3,1.1222792E5,6.0335234E3,4.6147524E3,1.371883E3,1.05835984E5,6.3919375E3,4.715971E3,1.317552E3,3.507678E3,1.1070746E3,3.2157474E2,1.0503083E3,9.9322234E4,6.5137476E3,4.977623E3,1.4143148E3,3.695172E3,1.0207992E3,9.0632916E2,4.112228E2,2.1202544E3,1.3874237E3,2.6762744E2,5.39473E1,7.99855E2,2.5045331E2,9.278259E4,6.539639E3,5.070105E3,1.4436423E3,3.6154766E3,1.3621464E3,9.4738495E2,4.6692987E2,2.3320554E3,1.3631167E3,1.6511404E2,7.4121515E2,1.2927705E2,2.8194574E2,1.4416573E3,6.78597E2,9.5850934E2,4.2891437E2,2.2281857E2,4.480885E1,3.7448116E1,1.6499184E1,9.016408E1,7.096909E2,6.997583E1,1.8047748E2],"tree_param":{"num_deleted":"0","num_feature":"22","num_nodes":"55","size_leaf_vector":"1"}},{"base_weights":[5.017912E-1,5.870985E-1,-1.1669567E0,6.793604E-1,-1.0995058E0,-8.341712E-1,-2.294548E0,7.829364E-1,-1.0178168E0,-7.727851E-1,-2.2499237E0,-1.4652054E0,1.1816094E-2,-2.5339637E0,-1.5702469E0,8.987828E-1,-9.655406E-1,-7.581678E-1,-2.4879563E0,-1.305082E0,1.1792823E-2,-2.5820365E0,-1.5051261E0,-1.1985729E0,-2.7664888E0,-1.3331314E0,-2.672058E0,1.1835832E-2,-2.656374E0,1.0288573E-2,-9.635762E-3,-7.035182E-3,-2.4222817E-2,-1.2963474E-2,1.1859971E-2,-2.8080221E-2,-1.9753003E-2,-7.856599E-3,-2.1946868E-2,-2.090492E-2,-3.0589668E-2,1.17470585E-2,-2.8287394E-2,-1.6264651E-2,1.1851619E-2,-1.0917277E-2,-2.8928211E-2,-9.369714E-3,-3.759716E-2,-2.4914877E-2,-3.278223E-2,-1.3206098E-2,-2.8781269E-2],"categories":[],"categories_nodes":[],"categories_segments":[],"categories_sizes":[],"default_left":[0,0,0,0,0,0,0,0,0,0,0,0,0,0,0,0,0,0,0,0,0,0,0,0,0,0,0,0,0,0,0,0,0,0,0,0,0,0,0,0,0,0,0,0,0,0,0,0,0,0,0,0,0],"id":8,"left_children":[1,3,5,7,9,11,13,15,17,19,21,23,-1,25,27,29,31,33,35,37,-1,39,41,43,45,47,49,-1,51,-1,-1,-1,-1,-1,-1,-1,-1,-1,-1,-1,-1,-1,-1,-1,-1,-1,-1,-1,-1,-1,-1,-1,-1],"loss_changes":[1.768095E4,1.8387168E4,2.26479E3,1.969418E4,2.3018232E3,5.936559E3,2.346206E2,2.138795E4,2.4579917E3,4.9627705E3,3.3129492E2,1.229708E3,0E0,1.6765234E2,1.0334043E3,2.3989656E4,2.5028086E3,5.733564E3,1.5309961E2,1.7320508E3,0E0,2.1297852E2,1.494108E3,3.0120718E3,1.2454248E2,1.0076459E2,9.3078125E1,0E0,6.9461426E1,0E0,0E0,0E0,0E0,0E0,0E0,0E0,0E0,0E0,0E0,0E0,0E0,0E0,0E0,0E0,0E0,0E0,0E0,0E0,0E0,0E0,0E0,0E0,0E0],"parents":[2147483647,0,0,1,1,2,2,3,3,4,4,5,5,6,6,7,7,8,8,9,9,10,10,11,11,13,13,14,14,15,15,16,16,17,17,18,18,19,19,21,21,22,22,23,23,24,24,25,25,26,26,28,28],"right_children":[2,4,6,8,10,12,14,16,18,20,22,24,-1,26,28,30,32,34,36,38,-1,40,42,44,46,48,50,-1,52,-1,-1,-1,-1,-1,-1,-1,-1,-1,-1,-1,-1,-1,-1,-1,-1,-1,-1,-1,-1,-1,-1,-1,-1],"split_conditions":[9.9568105E-1,9.9669874E-1,9.966146E-1,9.963608E-1,9.962126E-1,3.7314217E-3,3.639205E-3,9.9632275E-1,9.9626744E-1,3.8978201E-3,3.7725044E-3,9.9626744E-1,1.1816094E-2,7.53185E3,9.8540986E-1,9.955656E-1,9.961155E-1,3.965569E-3,3.8978201E-3,9.966146E-1,1.1792823E-2,4.354648E4,9.922489E-1,3.965569E-3,9.61495E3,9.1251713E-1,9.843889E-1,1.1835832E-2,9.94111E3,1.0288573E-2,-9.635762E-3,-7.035182E-3,-2.4222817E-2,-1.2963474E-2,1.1859971E-2,-2.8080221E-2,-1.9753003E-2,-7.856599E-3,-2.1946868E-2,-2.090492E-2,-3.0589668E-2,1.17470585E-2,-2.8287394E-2,-1.6264651E-2,1.1851619E-2,-1.0917277E-2,-2.8928211E-2,-9.369714E-3,-3.759716E-2,-2.4914877E-2,-3.278223E-2,-1.3206098E-2,-2.8781269E-2],"split_indices":[14,16,5,17,6,5,11,15,21,6,18,21,0,2,11,12,18,21,6,5,0,2,18,21,3,21,9,0,2,0,0,0,0,0,0,0,0,0,0,0,0,0,0,0,0,0,0,0,0,0,0,0,0],"split_type":[0,0,0,0,0,0,0,0,0,0,0,0,0,0,0,0,0,0,0,0,0,0,0,0,0,0,0,0,0,0,0,0,0,0,0,0,0,0,0,0,0,0,0,0,0,0,0,0,0,0,0,0,0],"sum_hessian":[1.2419617E5,1.1815659E5,6.0395825E3,1.120289E5,6.1276924E3,4.6646475E3,1.3749353E3,1.0558571E5,6.4431895E3,4.7736416E3,1.3540505E3,3.5527441E3,1.1119032E3,1.0314829E3,3.4345236E2,9.902523E4,6.560489E3,5.4773257E3,9.658634E2,3.7511074E3,1.02253424E3,9.347631E2,4.1928735E2,2.950175E3,6.02569E2,1.0748396E2,9.2399896E2,9.711969E1,2.4633267E2,9.256085E4,6.4643706E3,5.5616113E3,9.988777E2,4.2900864E3,1.1872394E3,5.918667E2,3.7399673E2,2.3694924E3,1.3816151E3,4.6297974E2,4.717834E2,1.3866138E2,2.8062598E2,2.501467E3,4.487081E2,4.2941696E1,5.596273E2,9.359065E1,1.3893314E1,7.1586145E2,2.0813748E2,3.606211E1,2.1027057E2],"tree_param":{"num_deleted":"0","num_feature":"22","num_nodes":"53","size_leaf_vector":"1"}},{"base_weights":[4.990036E-1,6.19474E-1,-7.221841E-1,7.6457226E-1,-6.651374E-1,-4.152971E-1,-1.8966689E0,9.4346935E-1,-5.913708E-1,-3.5038176E-1,-1.8982406E0,-1.1429484E0,1.1777744E-2,-1.732605E0,-3.0822008E0,7.616401E-1,1.1794381E-2,-2.7435192E-1,-1.934389E0,-1.0337121E0,1.1806196E-2,-2.1452994E0,-1.0740502E0,-1.7912805E0,-7.2971493E-1,-2.0501163E0,1.1822999E-2,-3.4613538E0,-2.6916816E0,3.2621846E-3,1.1787509E-2,-9.890741E-3,1.1831096E-2,-2.2565467E-2,-1.0539873E-2,-1.789703E-2,-5.9340694E-3,-1.9660745E-2,-3.097627E-2,1.1776841E-2,-2.7098963E-2,-2.0583838E-2,-9.135722E-3,1.1815128E-2,-1.7609114E-2,-2.3017967E-2,-1.3467058E-2,-3.0962152E-2,-4.570897E-2,-5.508757E-3,-2.7810687E-2],"categories":[],"categories_nodes":[],"categories_segments":[],"categories_sizes":[],"default_left":[0,0,0,0,0,0,0,0,0,0,0,0,0,0,0,0,0,0,0,0,0,0,0,0,0,0,0,0,0,0,0,0,0,0,0,0,0,0,0,0,0,0,0,0,0,0,0,0,0,0,0],"id":9,"left_children":[1,3,5,7,9,11,13,15,17,19,21,23,-1,25,27,29,-1,31,33,35,-1,37,39,41,43,45,-1,47,49,-1,-1,-1,-1,-1,-1,-1,-1,-1,-1,-1,-1,-1,-1,-1,-1,-1,-1,-1,-1,-1,-1],"loss_changes":[1.8202441E4,2.0991484E4,4.003622E3,2.4545902E4,4.435485E3,1.0213508E4,4.422705E2,3.8346094E3,5.021211E3,9.528442E3,4.709131E2,1.6190122E3,0E0,1.8755098E3,3.1916016E1,9.169811E3,0E0,9.942369E3,6.3643164E2,2.09498E3,0E0,2.9891797E2,1.9848203E3,5.498911E2,7.285082E3,3.2005957E2,0E0,4.1674072E1,2.5579468E1,0E0,0E0,0E0,0E0,0E0,0E0,0E0,0E0,0E0,0E0,0E0,0E0,0E0,0E0,0E0,0E0,0E0,0E0,0E0,0E0,0E0,0E0],"parents":[2147483647,0,0,1,1,2,2,3,3,4,4,5,5,6,6,7,7,8,8,9,9,10,10,11,11,13,13,14,14,15,15,17,17,18,18,19,19,21,21,22,22,23,23,24,24,25,25,27,27,28,28],"right_children":[2,4,6,8,10,12,14,16,18,20,22,24,-1,26,28,30,-1,32,34,36,-1,38,40,42,44,46,-1,48,50,-1,-1,-1,-1,-1,-1,-1,-1,-1,-1,-1,-1,-1,-1,-1,-1,-1,-1,-1,-1,-1,-1],"split_conditions":[9.957444E-1,9.961155E-1,9.9594307E-1,9.9616325E-1,9.9594307E-1,3.8366832E-3,9.955656E-1,3.7725044E-3,9.962126E-1,3.8366832E-3,4.356545E-3,3.7314217E-3,1.1777744E-2,3.6851163E-3,5.709693E4,4.0212907E-3,1.1794381E-2,3.8978201E-3,3.639205E-3,3.7314217E-3,1.1806196E-2,9.7750425E-1,9.963608E-1,3.6374654E-3,9.928486E-1,3.8275488E-3,1.1822999E-2,4.134912E4,5.8191375E4,3.2621846E-3,1.1787509E-2,-9.890741E-3,1.1831096E-2,-2.2565467E-2,-1.0539873E-2,-1.789703E-2,-5.9340694E-3,-1.9660745E-2,-3.097627E-2,1.1776841E-2,-2.7098963E-2,-2.0583838E-2,-9.135722E-3,1.1815128E-2,-1.7609114E-2,-2.3017967E-2,-1.3467058E-2,-3.0962152E-2,-4.570897E-2,-5.508757E-3,-2.7810687E-2],"split_indices":[20,18,4,19,4,4,12,18,6,4,17,5,0,12,3,20,0,6,11,5,0,15,17,15,5,16,0,3,3,0,0,0,0,0,0,0,0,0,0,0,0,0,0,0,0,0,0,0,0,0,0],"split_type":[0,0,0,0,0,0,0,0,0,0,0,0,0,0,0,0,0,0,0,0,0,0,0,0,0,0,0,0,0,0,0,0,0,0,0,0,0,0,0,0,0,0,0,0,0,0,0,0,0,0,0],"sum_hessian":[1.2372359E5,1.12614625E5,1.1108963E4,1.0118597E5,1.1428661E4,8.808658E3,2.300305E3,8.939226E4,1.1793709E4,9.105677E3,2.3229844E3,6.0469404E3,2.7617178E3,2.0228301E3,2.7747485E2,5.0490375E4,3.8901883E4,9.542428E3,2.251282E3,6.2959404E3,2.8097363E3,1.7860085E3,5.3697577E2,2.3525825E3,3.6943582E3,1.8244006E3,1.9842949E2,1.3679642E2,1.4067842E2,2.470384E4,2.5786535E4,6.4028604E3,3.1395671E3,1.647034E3,6.0424805E2,2.3161372E3,3.9798032E3,1.5057043E3,2.803042E2,2.2607066E2,3.109051E2,1.8026549E3,5.4992755E2,1.2946667E3,2.3996912E3,1.3419708E3,4.8242972E2,1.0577691E2,3.101951E1,5.925545E0,1.3475288E2],"tree_param":{"num_deleted":"0","num_feature":"22","num_nodes":"51","size_leaf_vector":"1"}},{"base_weights":[4.9748066E-1,5.832121E-1,-1.1612557E0,6.750976E-1,-1.0763628E0,-8.4534055E-1,-2.2165453E0,7.7840805E-1,-1.0114709E0,-1.6168494E0,-4.5279536E-1,-1.5539275E0,1.1757315E-2,-2.5103476E0,-1.5445113E0,8.940166E-1,-9.453232E-1,-7.586624E-1,-2.4287944E0,-1.4126124E0,-2.8201396E0,1.1812218E-2,-1.772169E0,-2.1840403E0,-1.1110914E0,-2.701186E0,-1.8810208E0,1.1717822E-2,-2.5002244E0,1.0249493E-2,-9.524228E-3,-6.208442E-3,-2.1864671E-2,-1.2814702E-2,1.1818623E-2,-2.130117E-2,-3.2057237E-2,-1.7540224E-2,1.1870776E-2,-7.5059733E-3,-2.8943283E-2,-1.553431E-2,-3.1375576E-2,-2.4027495E-2,-1.5143422E-2,1.180155E-2,-1.9220803E-2,-2.5968598E-2,-3.9604135E-2,1.17075285E-2,-2.5132513E-2,-4.161024E-2,-2.304491E-2],"categories":[],"categories_nodes":[],"categories_segments":[],"categories_sizes":[],"default_left":[0,0,0,0,0,0,0,0,0,0,0,0,0,0,0,0,0,0,0,0,0,0,0,0,0,0,0,0,0,0,0,0,0,0,0,0,0,0,0,0,0,0,0,0,0,0,0,0,0,0,0,0,0],"id":10,"left_children":[1,3,5,7,9,11,13,15,17,19,21,23,-1,25,27,29,31,33,35,37,39,-1,41,43,45,47,49,-1,51,-1,-1,-1,-1,-1,-1,-1,-1,-1,-1,-1,-1,-1,-1,-1,-1,-1,-1,-1,-1,-1,-1,-1,-1],"loss_changes":[1.753593E4,1.7880238E4,2.0185288E3,1.9358715E4,2.0725303E3,6.6835815E3,2.7168408E2,2.08627E4,2.296004E3,8.057627E2,6.162835E3,9.616338E2,0E0,1.1135547E2,1.1117947E3,2.3719438E4,2.6487427E3,5.524273E3,2.1832715E2,2.5039531E3,7.1079834E1,0E0,4.6744385E2,2.0506836E2,3.77629E3,8.7140625E1,4.44544E2,0E0,9.322876E1,0E0,0E0,0E0,0E0,0E0,0E0,0E0,0E0,0E0,0E0,0E0,0E0,0E0,0E0,0E0,0E0,0E0,0E0,0E0,0E0,0E0,0E0,0E0,0E0],"parents":[2147483647,0,0,1,1,2,2,3,3,4,4,5,5,6,6,7,7,8,8,9,9,10,10,11,11,13,13,14,14,15,15,16,16,17,17,18,18,19,19,20,20,22,22,23,23,24,24,25,25,26,26,28,28],"right_children":[2,4,6,8,10,12,14,16,18,20,22,24,-1,26,28,30,32,34,36,38,40,-1,42,44,46,48,50,-1,52,-1,-1,-1,-1,-1,-1,-1,-1,-1,-1,-1,-1,-1,-1,-1,-1,-1,-1,-1,-1,-1,-1,-1,-1],"split_conditions":[9.9568105E-1,9.9669874E-1,9.962126E-1,9.963608E-1,3.8366832E-3,3.8978201E-3,3.7725044E-3,9.9594307E-1,9.9626744E-1,9.958804E-1,9.9594307E-1,3.8366832E-3,1.1757315E-2,3.7414075E-3,9.961155E-1,9.955656E-1,9.9594307E-1,3.965569E-3,9.7671306E-1,4.0825894E-3,7.08226E3,1.1812218E-2,9.9158436E-1,3.639205E-3,9.9594307E-1,9.0374E4,9.9158436E-1,1.1717822E-2,1.869255E4,1.0249493E-2,-9.524228E-3,-6.208442E-3,-2.1864671E-2,-1.2814702E-2,1.1818623E-2,-2.130117E-2,-3.2057237E-2,-1.7540224E-2,1.1870776E-2,-7.5059733E-3,-2.8943283E-2,-1.553431E-2,-3.1375576E-2,-2.4027495E-2,-1.5143422E-2,1.180155E-2,-1.9220803E-2,-2.5968598E-2,-3.9604135E-2,1.17075285E-2,-2.5132513E-2,-4.161024E-2,-2.304491E-2],"split_indices":[14,16,6,17,4,6,18,13,21,8,4,4,0,10,18,12,4,21,4,8,3,0,10,11,4,3,10,0,3,0,0,0,0,0,0,0,0,0,0,0,0,0,0,0,0,0,0,0,0,0,0,0,0],"split_type":[0,0,0,0,0,0,0,0,0,0,0,0,0,0,0,0,0,0,0,0,0,0,0,0,0,0,0,0,0,0,0,0,0,0,0,0,0,0,0,0,0,0,0,0,0,0,0,0,0,0,0,0,0],"sum_hessian":[1.23308E5,1.1724867E5,6.059322E3,1.1109811E5,6.1505664E3,4.664686E3,1.3946357E3,1.0468612E5,6.4119897E3,3.2939192E3,2.8566472E3,3.45396E3,1.2107258E3,9.6849164E2,4.261441E2,9.81067E4,6.579419E3,5.4427075E3,9.6928235E2,2.817819E3,4.761003E2,1.276202E3,1.5804453E3,1.4239236E3,2.0300364E3,7.406142E2,2.2787741E2,1.10853676E2,3.1529044E2,9.161093E4,6.49577E3,5.217009E3,1.3624106E3,4.2878364E3,1.1548708E3,7.0283215E2,2.6645016E2,2.4910073E3,3.268116E2,1.6861242E1,4.5923904E2,1.3640582E3,2.1638707E2,1.0714298E3,3.5249384E2,5.305748E2,1.4994617E3,6.867776E2,5.3836647E1,3.8961006E1,1.889164E2,3.1105068E1,2.8418536E2],"tree_param":{"num_deleted":"0","num_feature":"22","num_nodes":"53","size_leaf_vector":"1"}},{"base_weights":[4.9030444E-1,6.105763E-1,-7.016821E-1,7.5482607E-1,-6.400929E-1,-4.1427225E-1,-1.778269E0,9.3812E-1,-6.3059264E-1,-3.3956513E-1,-1.8153584E0,-1.1402639E0,1.1741762E-2,-1.9912907E0,-1.042865E0,1.1758087E-2,-6.138003E-1,-3.3480802E-1,-1.7704285E0,-9.9525017E-1,1.1770287E-2,-1.6303666E0,-2.8411236E0,-7.331692E-1,-1.7466657E0,-2.1943662E0,-1.3624209E0,1.18387295E-2,-2.526284E0,-2.989952E-3,-1.931871E-2,-1.03977155E-2,1.1838061E-2,-1.5596089E-2,-3.1258807E-2,-5.440312E-3,-1.7358987E-2,-2.0429399E-2,1.1829544E-2,-3.5524447E-2,-2.4284568E-2,-1.7191159E-2,1.1779219E-2,-1.5503744E-2,-2.9623391E-2,-2.365197E-2,-1.758903E-2,1.17577445E-2,-2.7794136E-2,-1.2349995E-2,-3.0031273E-2],"categories":[],"categories_nodes":[],"categories_segments":[],"categories_sizes":[],"default_left":[0,0,0,0,0,0,0,0,0,0,0,0,0,0,0,0,0,0,0,0,0,0,0,0,0,0,0,0,0,0,0,0,0,0,0,0,0,0,0,0,0,0,0,0,0,0,0,0,0,0,0],"id":11,"left_children":[1,3,5,7,9,11,13,15,17,19,21,23,-1,25,27,-1,29,31,33,35,-1,37,39,41,43,45,47,-1,49,-1,-1,-1,-1,-1,-1,-1,-1,-1,-1,-1,-1,-1,-1,-1,-1,-1,-1,-1,-1,-1,-1],"loss_changes":[1.75341E4,2.0042867E4,3.467838E3,2.5294523E4,4.0572617E3,1.0206145E4,3.6790723E2,3.245E4,3.9234355E3,9.100553E3,4.392788E2,1.4981265E3,0E0,2.3073926E2,1.7621356E3,0E0,4.8476426E3,9.89562E3,6.803032E2,2.134249E3,0E0,2.3055547E3,9.589697E1,6.852844E3,5.7741064E2,9.863281E1,1.6195116E3,0E0,1.9329578E2,0E0,0E0,0E0,0E0,0E0,0E0,0E0,0E0,0E0,0E0,0E0,0E0,0E0,0E0,0E0,0E0,0E0,0E0,0E0,0E0,0E0,0E0],"parents":[2147483647,0,0,1,1,2,2,3,3,4,4,5,5,6,6,7,7,8,8,9,9,10,10,11,11,13,13,14,14,16,16,17,17,18,18,19,19,21,21,22,22,23,23,24,24,25,25,26,26,28,28],"right_children":[2,4,6,8,10,12,14,16,18,20,22,24,-1,26,28,-1,30,32,34,36,-1,38,40,42,44,46,48,-1,50,-1,-1,-1,-1,-1,-1,-1,-1,-1,-1,-1,-1,-1,-1,-1,-1,-1,-1,-1,-1,-1,-1],"split_conditions":[9.957444E-1,9.961155E-1,9.9594307E-1,9.9626744E-1,9.9594307E-1,3.8366832E-3,3.8275488E-3,9.9616325E-1,9.966146E-1,3.8366832E-3,9.9556637E-1,9.966146E-1,1.1741762E-2,3.6851163E-3,9.9669874E-1,1.1758087E-2,9.962126E-1,3.7314217E-3,9.878441E-1,9.966146E-1,1.1770287E-2,3.7414075E-3,4.249975E4,3.7314217E-3,6.1E1,4.119566E-3,9.955656E-1,1.18387295E-2,1.829525E4,-2.989952E-3,-1.931871E-2,-1.03977155E-2,1.1838061E-2,-1.5596089E-2,-3.1258807E-2,-5.440312E-3,-1.7358987E-2,-2.0429399E-2,1.1829544E-2,-3.5524447E-2,-2.4284568E-2,-1.7191159E-2,1.1779219E-2,-1.5503744E-2,-2.9623391E-2,-2.365197E-2,-1.758903E-2,1.17577445E-2,-2.7794136E-2,-1.2349995E-2,-3.0031273E-2],"split_indices":[20,18,4,21,4,4,16,19,5,4,10,5,0,12,16,0,6,5,10,5,0,10,2,5,1,14,12,0,2,0,0,0,0,0,0,0,0,0,0,0,0,0,0,0,0,0,0,0,0,0,0],"split_type":[0,0,0,0,0,0,0,0,0,0,0,0,0,0,0,0,0,0,0,0,0,0,0,0,0,0,0,0,0,0,0,0,0,0,0,0,0,0,0,0,0,0,0,0,0,0,0,0,0,0,0],"sum_hessian":[1.22302164E5,1.11093305E5,1.1208861E4,9.960541E4,1.14879E4,8.848118E3,2.3607434E3,8.796744E4,1.1637962E4,9.149552E3,2.338348E3,6.072842E3,2.7752766E3,1.8291832E3,5.315602E2,7.6284164E4,1.1683278E4,9.241189E3,2.3967725E3,6.3880728E3,2.7614792E3,1.9832648E3,3.5508298E2,3.6348638E3,2.4379778E3,1.3808029E3,4.4838043E2,2.1261256E2,3.1894763E2,9.431828E3,2.2514504E3,6.311576E3,2.9296138E3,2.0760288E3,3.207436E2,3.9707444E3,2.4173284E3,1.7298555E3,2.5340933E2,1.2757359E2,2.2750938E2,2.3978796E3,1.2369843E3,2.1010093E3,3.3696857E2,9.885618E2,3.92241E2,1.6069856E2,2.876819E2,8.698462E1,2.3196301E2],"tree_param":{"num_deleted":"0","num_feature":"22","num_nodes":"51","size_leaf_vector":"1"}},{"base_weights":[4.901597E-1,5.891091E-1,-9.683067E-1,7.022977E-1,-8.3984244E-1,-6.672652E-1,-2.0514035E0,8.325422E-1,-7.4349475E-1,-5.455157E-1,-1.9039186E0,-1.4094392E0,1.1735674E-2,-2.2892468E0,-1.2307488E0,6.569785E-1,1.1756842E-2,-2.7103326E-1,-1.6360774E0,-1.1775553E0,1.1777477E-2,-2.187678E0,-1.2462034E0,-1.0079533E0,-2.0100305E0,-2.113694E0,-3.2609031E0,1.1749455E-2,-2.312188E0,3.470352E-3,1.1759726E-2,1.3592239E-5,-1.46991955E-2,-1.3198913E-2,-2.5755929E-2,-1.917271E-2,-7.107263E-3,-2.9360728E-2,-1.9818615E-2,1.1750354E-2,-2.5139425E-2,-1.8953979E-2,1.1740016E-2,-2.370569E-2,-1.245596E-2,-2.3025552E-2,1.1592965E-2,-7.131247E-3,-3.452548E-2,-1.96229E-2,-3.025548E-2],"categories":[],"categories_nodes":[],"categories_segments":[],"categories_sizes":[],"default_left":[0,0,0,0,0,0,0,0,0,0,0,0,0,0,0,0,0,0,0,0,0,0,0,0,0,0,0,0,0,0,0,0,0,0,0,0,0,0,0,0,0,0,0,0,0,0,0,0,0,0,0],"id":12,"left_children":[1,3,5,7,9,11,13,15,17,19,21,23,-1,25,27,29,-1,31,33,35,-1,37,39,41,43,45,47,-1,49,-1,-1,-1,-1,-1,-1,-1,-1,-1,-1,-1,-1,-1,-1,-1,-1,-1,-1,-1,-1,-1,-1],"loss_changes":[1.7679371E4,1.8555434E4,2.5364849E3,2.0017605E4,2.6361558E3,8.32478E3,3.275122E2,5.8738984E3,3.704378E3,7.187134E3,3.37708E2,1.0449824E3,0E0,2.1672266E2,9.976689E2,1.0376979E4,0E0,1.8763689E3,8.9981396E2,1.665686E3,0E0,1.9026123E2,1.6976267E3,5.0453545E3,4.7624023E2,6.907676E2,9.458838E1,0E0,6.0000977E1,0E0,0E0,0E0,0E0,0E0,0E0,0E0,0E0,0E0,0E0,0E0,0E0,0E0,0E0,0E0,0E0,0E0,0E0,0E0,0E0,0E0,0E0],"parents":[2147483647,0,0,1,1,2,2,3,3,4,4,5,5,6,6,7,7,8,8,9,9,10,10,11,11,13,13,14,14,15,15,17,17,18,18,19,19,21,21,22,22,23,23,24,24,25,25,26,26,28,28],"right_children":[2,4,6,8,10,12,14,16,18,20,22,24,-1,26,28,30,-1,32,34,36,-1,38,40,42,44,46,48,-1,50,-1,-1,-1,-1,-1,-1,-1,-1,-1,-1,-1,-1,-1,-1,-1,-1,-1,-1,-1,-1,-1,-1],"split_conditions":[9.960929E-1,9.958804E-1,9.9594307E-1,9.961869E-1,9.962126E-1,3.8366832E-3,3.8275488E-3,4.0825894E-3,1E0,3.8978201E-3,3.7725044E-3,9.962126E-1,1.1735674E-2,9.7750425E-1,9.8203593E-1,4.2098057E-3,1.1756842E-2,9.962126E-1,9.9594307E-1,3.8366832E-3,1.1777477E-2,3.009143E4,9.961155E-1,3.8978201E-3,3.7393358E-3,3.6374654E-3,8.856116E3,1.1749455E-2,5E1,3.470352E-3,1.1759726E-2,1.3592239E-5,-1.46991955E-2,-1.3198913E-2,-2.5755929E-2,-1.917271E-2,-7.107263E-3,-2.9360728E-2,-1.9818615E-2,1.1750354E-2,-2.5139425E-2,-1.8953979E-2,1.1740016E-2,-2.370569E-2,-1.245596E-2,-2.3025552E-2,1.1592965E-2,-7.131247E-3,-3.452548E-2,-1.96229E-2,-3.025548E-2],"split_indices":[11,8,4,9,6,4,16,8,0,6,18,6,0,15,16,9,0,6,4,4,0,3,18,6,19,15,3,0,1,0,0,0,0,0,0,0,0,0,0,0,0,0,0,0,0,0,0,0,0,0,0],"split_type":[0,0,0,0,0,0,0,0,0,0,0,0,0,0,0,0,0,0,0,0,0,0,0,0,0,0,0,0,0,0,0,0,0,0,0,0,0,0,0,0,0,0,0,0,0,0,0,0,0,0,0],"sum_hessian":[1.22500984E5,1.1471852E5,7.7824644E3,1.0629899E5,8.419533E3,6.0910913E3,1.6913732E3,9.751477E4,8.784214E3,6.5964478E3,1.8230848E3,4.341108E3,1.7499833E3,1.3099364E3,3.8143683E2,6.451137E4,3.3003406E4,5.744723E3,3.0394912E3,4.8265396E3,1.7699083E3,1.271984E3,5.5110077E2,2.603432E3,1.737676E3,1.1121715E3,1.9776488E2,1.1826539E2,2.6317145E2,4.039134E4,2.412003E4,4.6819595E3,1.0627639E3,2.2759456E3,7.635455E2,1.8662534E3,2.9602861E3,2.7149664E2,1.00048737E3,1.8941417E2,3.616866E2,1.8508042E3,7.5262775E2,1.1793468E3,5.583292E2,1.0517772E3,6.039423E1,1.416553E1,1.8359935E2,1.7908324E2,8.40882E1],"tree_param":{"num_deleted":"0","num_feature":"22","num_nodes":"51","size_leaf_vector":"1"}},{"base_weights":[4.8556554E-1,6.0578614E-1,-7.051806E-1,7.510521E-1,-6.369241E-1,-4.0983695E-1,-1.8172879E0,9.3507916E-1,-6.1547726E-1,-3.437306E-1,-1.768098E0,-1.1227193E0,1.1707234E-2,-1.4123713E0,-2.3922882E0,7.509343E-1,1.17281275E-2,-3.2474416E-1,-1.7520622E0,-9.973731E-1,1.1735876E-2,-1.60632E0,-2.9599674E0,-1.7076529E0,-7.3869663E-1,-1.6864005E0,-5.5643034E-1,-2.6372488E0,-1.605991E0,3.1972048E-3,1.1720323E-2,-1.0000877E-2,1.1802243E-2,-1.2774195E-2,-2.4405295E-2,-5.597688E-3,-1.7140131E-2,-1.8955613E-2,1.1769143E-2,-2.2792555E-2,-3.248893E-2,-1.963562E-2,-8.514744E-3,1.1742319E-2,-1.6715772E-2,-2.0637712E-2,-7.6904055E-3,1.1771411E-2,-2.1028467E-2,-9.367313E-3,-2.7343724E-2,1.1706375E-2,-2.3298657E-2],"categories":[],"categories_nodes":[],"categories_segments":[],"categories_sizes":[],"default_left":[0,0,0,0,0,0,0,0,0,0,0,0,0,0,0,0,0,0,0,0,0,0,0,0,0,0,0,0,0,0,0,0,0,0,0,0,0,0,0,0,0,0,0,0,0,0,0,0,0,0,0,0,0],"id":13,"left_children":[1,3,5,7,9,11,13,15,17,19,21,23,-1,25,27,29,-1,31,33,35,-1,37,39,41,43,45,47,49,51,-1,-1,-1,-1,-1,-1,-1,-1,-1,-1,-1,-1,-1,-1,-1,-1,-1,-1,-1,-1,-1,-1,-1,-1],"loss_changes":[1.7416133E4,1.9948812E4,3.6638218E3,2.4881316E4,3.8352158E3,9.936003E3,5.416538E2,3.8163281E3,3.8798213E3,9.112003E3,4.5424463E2,1.3637876E3,0E0,3.2182153E2,1.8180176E2,8.922395E3,0E0,9.506559E3,7.784414E2,2.0126958E3,0E0,1.6913076E3,4.8314697E1,5.258613E2,6.551654E3,3.590896E2,9.0109265E2,1.1881201E2,4.6900146E2,0E0,0E0,0E0,0E0,0E0,0E0,0E0,0E0,0E0,0E0,0E0,0E0,0E0,0E0,0E0,0E0,0E0,0E0,0E0,0E0,0E0,0E0,0E0,0E0],"parents":[2147483647,0,0,1,1,2,2,3,3,4,4,5,5,6,6,7,7,8,8,9,9,10,10,11,11,13,13,14,14,15,15,17,17,18,18,19,19,21,21,22,22,23,23,24,24,25,25,26,26,27,27,28,28],"right_children":[2,4,6,8,10,12,14,16,18,20,22,24,-1,26,28,30,-1,32,34,36,-1,38,40,42,44,46,48,50,52,-1,-1,-1,-1,-1,-1,-1,-1,-1,-1,-1,-1,-1,-1,-1,-1,-1,-1,-1,-1,-1,-1,-1,-1],"split_conditions":[9.957444E-1,9.961155E-1,9.9594307E-1,9.9626744E-1,9.9594307E-1,3.8366832E-3,1E0,3.965569E-3,9.966146E-1,3.8366832E-3,9.9214906E-1,3.7314217E-3,1.1707234E-2,3.8275488E-3,3.639205E-3,3.7725044E-3,1.17281275E-2,3.7314217E-3,1E0,9.966146E-1,1.1735876E-2,3.6374654E-3,3.1E1,3.6374654E-3,9.966146E-1,4.0825894E-3,9.9669874E-1,8.458266E3,9.9248964E-1,3.1972048E-3,1.1720323E-2,-1.0000877E-2,1.1802243E-2,-1.2774195E-2,-2.4405295E-2,-5.597688E-3,-1.7140131E-2,-1.8955613E-2,1.1769143E-2,-2.2792555E-2,-3.248893E-2,-1.963562E-2,-8.514744E-3,1.1742319E-2,-1.6715772E-2,-2.0637712E-2,-7.6904055E-3,1.1771411E-2,-2.1028467E-2,-9.367313E-3,-2.7343724E-2,1.1706375E-2,-2.3298657E-2],"split_indices":[20,18,4,21,4,4,0,21,5,4,15,5,0,16,11,18,0,5,0,5,0,15,1,15,5,8,16,3,11,0,0,0,0,0,0,0,0,0,0,0,0,0,0,0,0,0,0,0,0,0,0,0,0],"split_type":[0,0,0,0,0,0,0,0,0,0,0,0,0,0,0,0,0,0,0,0,0,0,0,0,0,0,0,0,0,0,0,0,0,0,0,0,0,0,0,0,0,0,0,0,0,0,0,0,0,0,0,0,0],"sum_hessian":[1.216577E5,1.1050168E5,1.1156022E4,9.89369E4,1.1564783E4,8.816091E3,2.3399312E3,8.71949E4,1.1742001E4,9.18531E3,2.3794734E3,6.075941E3,2.7401501E3,1.3750641E3,9.64867E2,4.9137723E4,3.8057176E4,9.351274E3,2.3907263E3,6.4199956E3,2.7653145E3,2.0971636E3,2.823098E2,2.4066875E3,3.6692534E3,1.040862E3,3.34202E2,7.3388196E2,2.3098509E2,2.4278129E4,2.4859592E4,6.454984E3,2.896291E3,1.4168071E3,9.7391907E2,3.9871125E3,2.432883E3,1.9000265E3,1.9713695E2,8.676932E1,1.955405E2,1.8518745E3,5.548131E2,1.2027278E3,2.4665256E3,7.366001E2,3.0426193E2,1.5767885E2,1.7652315E2,4.022557E1,6.936564E2,4.763815E1,1.8334694E2],"tree_param":{"num_deleted":"0","num_feature":"22","num_nodes":"53","size_leaf_vector":"1"}},{"base_weights":[4.8277658E-1,5.81559E-1,-9.293066E-1,6.950389E-1,-9.121506E-1,-6.3027346E-1,-1.9772351E0,8.262861E-1,-8.5017645E-1,-6.02546E-1,-2.0199723E0,-1.3341253E0,1.1703002E-2,-2.2937303E0,-1.2781935E0,9.838978E-1,-8.2942665E-1,-6.124327E-1,-2.2033896E0,-1.2689471E0,1.173579E-2,-1.7893571E0,-2.967353E0,-1.9530373E0,-9.330265E-1,-2.5924797E0,-1.8007365E0,1.1700942E-2,-2.3101602E0,1.1728276E-2,-7.1992795E-3,-5.2417433E-3,-1.9043764E-2,-1.0357186E-2,1.17146205E-2,-2.419008E-2,-1.38613E-2,-1.0356355E-2,-2.419947E-2,-2.1747056E-2,1.1702564E-2,-2.120333E-2,-3.2077692E-2,-2.181468E-2,-1.1635654E-2,1.1699592E-2,-1.820646E-2,-1.622232E-2,-2.9043777E-2,-9.8879365E-3,-2.13276E-2,-2.0853886E-2,-3.5086744E-2],"categories":[],"categories_nodes":[],"categories_segments":[],"categories_sizes":[],"default_left":[0,0,0,0,0,0,0,0,0,0,0,0,0,0,0,0,0,0,0,0,0,0,0,0,0,0,0,0,0,0,0,0,0,0,0,0,0,0,0,0,0,0,0,0,0,0,0,0,0,0,0,0,0],"id":14,"left_children":[1,3,5,7,9,11,13,15,17,19,21,23,-1,25,27,29,31,33,35,37,-1,39,41,43,45,47,49,-1,51,-1,-1,-1,-1,-1,-1,-1,-1,-1,-1,-1,-1,-1,-1,-1,-1,-1,-1,-1,-1,-1,-1,-1,-1],"loss_changes":[1.6956422E4,1.925825E4,2.4893672E3,2.14147E4,2.7502856E3,7.839954E3,3.8734668E2,2.5398242E4,2.658248E3,7.424327E3,3.7743262E2,1.1021641E3,0E0,1.7398438E2,1.3974148E3,2.860661E4,2.7749053E3,5.3117334E3,2.1426855E2,1.2222568E3,0E0,1.6122251E3,6.2728027E1,3.126665E2,5.0426885E3,2.2316699E2,1.2216345E2,0E0,9.738818E1,0E0,0E0,0E0,0E0,0E0,0E0,0E0,0E0,0E0,0E0,0E0,0E0,0E0,0E0,0E0,0E0,0E0,0E0,0E0,0E0,0E0,0E0,0E0,0E0],"parents":[2147483647,0,0,1,1,2,2,3,3,4,4,5,5,6,6,7,7,8,8,9,9,10,10,11,11,13,13,14,14,15,15,16,16,17,17,18,18,19,19,21,21,22,22,23,23,24,24,25,25,26,26,28,28],"right_children":[2,4,6,8,10,12,14,16,18,20,22,24,-1,26,28,30,32,34,36,38,-1,40,42,44,46,48,50,-1,52,-1,-1,-1,-1,-1,-1,-1,-1,-1,-1,-1,-1,-1,-1,-1,-1,-1,-1,-1,-1,-1,-1,-1,-1],"split_conditions":[9.960929E-1,9.963333E-1,9.962126E-1,9.9556637E-1,9.966146E-1,3.8978201E-3,3.7393358E-3,9.958804E-1,9.9626744E-1,3.7314217E-3,9.9616325E-1,3.7314217E-3,1.1703002E-2,6.5318438E4,9.720577E-1,9.961869E-1,9.966146E-1,3.965569E-3,3.6851163E-3,9.9626744E-1,1.173579E-2,3.7393358E-3,1.791452E4,3.8275488E-3,9.966146E-1,1.216787E4,7.249877E4,1.1700942E-2,7.959562E4,1.1728276E-2,-7.1992795E-3,-5.2417433E-3,-1.9043764E-2,-1.0357186E-2,1.17146205E-2,-2.419008E-2,-1.38613E-2,-1.0356355E-2,-2.419947E-2,-2.1747056E-2,1.1702564E-2,-2.120333E-2,-3.2077692E-2,-2.181468E-2,-1.1635654E-2,1.1699592E-2,-1.820646E-2,-1.622232E-2,-2.9043777E-2,-9.8879365E-3,-2.13276E-2,-2.0853886E-2,-3.5086744E-2],"split_indices":[11,7,6,10,5,6,19,8,21,5,19,5,0,2,19,9,5,21,12,21,0,19,2,16,5,2,2,0,3,0,0,0,0,0,0,0,0,0,0,0,0,0,0,0,0,0,0,0,0,0,0,0,0],"split_type":[0,0,0,0,0,0,0,0,0,0,0,0,0,0,0,0,0,0,0,0,0,0,0,0,0,0,0,0,0,0,0,0,0,0,0,0,0,0,0,0,0,0,0,0,0,0,0,0,0,0,0,0,0],"sum_hessian":[1.2155614E5,1.1360919E5,7.946954E3,1.05588E5,8.0211846E3,6.1839307E3,1.7630231E3,9.732214E4,8.265861E3,6.270345E3,1.7508392E3,4.446165E3,1.7377656E3,1.2120012E3,5.510219E2,8.88634E4,8.458741E3,7.031892E3,1.2339686E3,4.5597974E3,1.7105479E3,1.4104022E3,3.4043698E2,1.7468439E3,2.6993213E3,7.520235E2,4.5997766E2,1.6334958E2,3.8767233E2,7.999357E4,8.869827E3,6.5891226E3,1.8696184E3,5.6836777E3,1.3482146E3,9.7482074E2,2.591479E2,3.79287E3,7.6692737E2,1.2481548E3,1.6224748E2,7.7436584E1,2.630004E2,1.3534618E3,3.9338214E2,8.0107135E2,1.89825E3,1.8444768E2,5.675758E2,1.3465797E2,3.2531967E2,3.287567E2,5.891564E1],"tree_param":{"num_deleted":"0","num_feature":"22","num_nodes":"53","size_leaf_vector":"1"}},{"base_weights":[4.7998762E-1,5.9972954E-1,-6.799133E-1,7.444452E-1,-6.3665193E-1,-3.994314E-1,-1.7118394E0,9.2755073E-1,-5.885013E-1,-3.5584444E-1,-1.6833496E0,-1.0768458E0,1.1673184E-2,-1.3455039E0,-2.207604E0,7.4145216E-1,1.1692609E-2,-3.975061E-1,-2.2631931E0,-9.996423E-1,1.1702364E-2,-1.5039368E0,-2.7154691E0,-1.6455332E0,-7.0020574E-1,-1.136784E0,-2.758717E0,-6.8855125E-1,-2.3016255E0,3.043938E-3,1.1686699E-2,-7.7693886E-3,1.180044E-2,-2.0310935E-2,-2.8751737E-2,-5.8380156E-3,-1.6548743E-2,-1.875448E-2,1.1877513E-2,-2.923206E-2,-1.9492485E-2,-1.912741E-2,-9.08044E-3,1.1710793E-2,-1.6074613E-2,-1.4539325E-2,1.17141185E-2,1.1248984E-4,-2.9661026E-2,-4.4064033E-3,-3.7724476E-2,-2.5271518E-2,-1.6336594E-2],"categories":[],"categories_nodes":[],"categories_segments":[],"categories_sizes":[],"default_left":[0,0,0,0,0,0,0,0,0,0,0,0,0,0,0,0,0,0,0,0,0,0,0,0,0,0,0,0,0,0,0,0,0,0,0,0,0,0,0,0,0,0,0,0,0,0,0,0,0,0,0,0,0],"id":15,"left_children":[1,3,5,7,9,11,13,15,17,19,21,23,-1,25,27,29,-1,31,33,35,-1,37,39,41,43,45,47,49,51,-1,-1,-1,-1,-1,-1,-1,-1,-1,-1,-1,-1,-1,-1,-1,-1,-1,-1,-1,-1,-1,-1,-1,-1],"loss_changes":[1.6799127E4,1.9616504E4,3.27527E3,2.3955078E4,3.37604E3,9.447998E3,4.362881E2,3.8807422E3,3.790858E3,8.901942E3,4.4586377E2,1.3299448E3,0E0,4.078755E2,1.4497949E2,9.103648E3,0E0,6.371027E3,1.6650684E2,1.7352417E3,0E0,2.0744731E3,5.1379395E1,4.8604736E2,6.3518623E3,8.9172485E2,1.0263757E2,4.515802E1,1.4138623E2,0E0,0E0,0E0,0E0,0E0,0E0,0E0,0E0,0E0,0E0,0E0,0E0,0E0,0E0,0E0,0E0,0E0,0E0,0E0,0E0,0E0,0E0,0E0,0E0],"parents":[2147483647,0,0,1,1,2,2,3,3,4,4,5,5,6,6,7,7,8,8,9,9,10,10,11,11,13,13,14,14,15,15,17,17,18,18,19,19,21,21,22,22,23,23,24,24,25,25,26,26,27,27,28,28],"right_children":[2,4,6,8,10,12,14,16,18,20,22,24,-1,26,28,30,-1,32,34,36,-1,38,40,42,44,46,48,50,52,-1,-1,-1,-1,-1,-1,-1,-1,-1,-1,-1,-1,-1,-1,-1,-1,-1,-1,-1,-1,-1,-1,-1,-1],"split_conditions":[9.957444E-1,9.961155E-1,9.9594307E-1,9.9626744E-1,9.9594307E-1,3.8366832E-3,1E0,3.965569E-3,9.963333E-1,3.8366832E-3,9.963333E-1,3.7314217E-3,1.1673184E-2,9.754252E-1,8.458266E3,3.7725044E-3,1.1692609E-2,4.255608E-3,9.8821104E-1,1E0,1.1702364E-2,4.255608E-3,4.356545E-3,3.639205E-3,9.928486E-1,3.7414075E-3,7.70271E3,4.119566E-3,3.7414075E-3,3.043938E-3,1.1686699E-2,-7.7693886E-3,1.180044E-2,-2.0310935E-2,-2.8751737E-2,-5.8380156E-3,-1.6548743E-2,-1.875448E-2,1.1877513E-2,-2.923206E-2,-1.9492485E-2,-1.912741E-2,-9.08044E-3,1.1710793E-2,-1.6074613E-2,-1.4539325E-2,1.17141185E-2,1.1248984E-4,-2.9661026E-2,-4.4064033E-3,-3.7724476E-2,-2.5271518E-2,-1.6336594E-2],"split_indices":[20,18,4,21,4,4,0,21,7,4,7,5,0,10,3,18,0,7,4,0,0,7,17,11,5,10,3,14,10,0,0,0,0,0,0,0,0,0,0,0,0,0,0,0,0,0,0,0,0,0,0,0,0],"split_type":[0,0,0,0,0,0,0,0,0,0,0,0,0,0,0,0,0,0,0,0,0,0,0,0,0,0,0,0,0,0,0,0,0,0,0,0,0,0,0,0,0,0,0,0,0,0,0,0,0,0,0,0,0],"sum_hessian":[1.2094986E5,1.0963247E5,1.1317386E4,9.8145195E4,1.1487273E4,8.899776E3,2.4176096E3,8.6291695E4,1.1853501E4,9.058425E3,2.428849E3,6.213544E3,2.6862324E3,1.3924213E3,1.0251884E3,4.875675E4,3.753495E4,1.0641139E4,1.2123625E3,6.371054E3,2.6873704E3,2.0712603E3,3.5758902E2,2.4742756E3,3.739268E3,1.2148085E3,1.7761278E2,6.0240513E1,9.649478E2,2.4101652E4,2.4655098E4,8.578373E3,2.0627651E3,8.8212646E2,3.302361E2,3.8986682E3,2.4723857E3,1.8203197E3,2.5094043E2,2.791036E2,7.848539E1,1.8150511E3,6.592246E2,1.2208596E3,2.5184084E3,1.0683817E3,1.4642667E2,1.2437376E1,1.651754E2,5.6816025E1,3.4244912E0,7.193045E2,2.4564326E2],"tree_param":{"num_deleted":"0","num_feature":"22","num_nodes":"53","size_leaf_vector":"1"}},{"base_weights":[4.7640055E-1,5.7502675E-1,-9.2745626E-1,6.8896914E-1,-9.0921503E-1,-6.9000185E-1,-2.1559093E0,8.186402E-1,-7.069209E-1,-6.0653627E-1,-1.9823391E0,-1.1694058E0,1.16869705E-2,-2.4760087E0,-1.1067096E0,6.4831495E-1,1.1692984E-2,-2.5451794E-1,-1.5530576E0,-1.2510089E0,1.1700858E-2,-2.2681556E0,-1.0505489E0,-8.9084303E-1,-2.035246E0,-2.818142E0,-1.9923389E0,1.1733464E-2,-2.2893305E0,3.4751724E-3,1.1699957E-2,-4.544857E-4,-1.7732529E-2,-1.2909465E-2,-2.8689617E-2,-1.0140261E-2,-2.3941692E-2,-1.9382896E-2,-2.6706405E-2,1.1666298E-2,-2.3219718E-2,-1.5175387E-2,1.167415E-2,-2.3482792E-2,-1.5462868E-2,-1.8180184E-2,-2.9115055E-2,-1.756589E-2,-3.4047507E-2,-1.8663418E-2,-2.8174423E-2],"categories":[],"categories_nodes":[],"categories_segments":[],"categories_sizes":[],"default_left":[0,0,0,0,0,0,0,0,0,0,0,0,0,0,0,0,0,0,0,0,0,0,0,0,0,0,0,0,0,0,0,0,0,0,0,0,0,0,0,0,0,0,0,0,0,0,0,0,0,0,0],"id":16,"left_children":[1,3,5,7,9,11,13,15,17,19,21,23,-1,25,27,29,-1,31,33,35,-1,37,39,41,43,45,47,-1,49,-1,-1,-1,-1,-1,-1,-1,-1,-1,-1,-1,-1,-1,-1,-1,-1,-1,-1,-1,-1,-1,-1],"loss_changes":[1.6665404E4,1.9019836E4,2.3032915E3,1.8905594E4,2.603249E3,5.9026943E3,4.269419E2,5.707047E3,3.3981138E3,7.164178E3,4.6730273E2,1.2681362E3,0E0,1.5647314E2,8.140203E2,1.0093535E4,0E0,1.8371761E3,1.0630771E3,1.2413159E3,0E0,1.7389307E2,1.1749644E3,5.142622E3,1.9242041E2,4.8050293E1,1.3028137E2,0E0,3.9075928E1,0E0,0E0,0E0,0E0,0E0,0E0,0E0,0E0,0E0,0E0,0E0,0E0,0E0,0E0,0E0,0E0,0E0,0E0,0E0,0E0,0E0,0E0],"parents":[2147483647,0,0,1,1,2,2,3,3,4,4,5,5,6,6,7,7,8,8,9,9,10,10,11,11,13,13,14,14,15,15,17,17,18,18,19,19,21,21,22,22,23,23,24,24,25,25,26,26,28,28],"right_children":[2,4,6,8,10,12,14,16,18,20,22,24,-1,26,28,30,-1,32,34,36,-1,38,40,42,44,46,48,-1,50,-1,-1,-1,-1,-1,-1,-1,-1,-1,-1,-1,-1,-1,-1,-1,-1,-1,-1,-1,-1,-1,-1],"split_conditions":[9.960929E-1,9.963333E-1,9.9626744E-1,9.961869E-1,9.966146E-1,3.965569E-3,4.119566E-3,4.2098057E-3,1E0,3.7314217E-3,3.6619438E-3,9.962126E-1,1.16869705E-2,6.329415E4,9.916457E-1,3.639205E-3,1.1692984E-2,9.9616325E-1,9.9616325E-1,9.9616325E-1,1.1700858E-2,1E0,9.880732E-1,3.8978201E-3,3.7393358E-3,4.3919E3,6E1,1.1733464E-2,1E0,3.4751724E-3,1.1699957E-2,-4.544857E-4,-1.7732529E-2,-1.2909465E-2,-2.8689617E-2,-1.0140261E-2,-2.3941692E-2,-1.9382896E-2,-2.6706405E-2,1.1666298E-2,-2.3219718E-2,-1.5175387E-2,1.167415E-2,-2.3482792E-2,-1.5462868E-2,-1.8180184E-2,-2.9115055E-2,-1.756589E-2,-3.4047507E-2,-1.8663418E-2,-2.8174423E-2],"split_indices":[11,7,21,9,5,21,14,9,0,5,13,6,0,2,14,11,0,19,19,19,0,0,13,6,19,2,1,0,0,0,0,0,0,0,0,0,0,0,0,0,0,0,0,0,0,0,0,0,0,0,0],"split_type":[0,0,0,0,0,0,0,0,0,0,0,0,0,0,0,0,0,0,0,0,0,0,0,0,0,0,0,0,0,0,0,0,0,0,0,0,0,0,0,0,0,0,0,0,0,0,0,0,0,0,0],"sum_hessian":[1.203603E5,1.1246015E5,7.9001553E3,1.04442805E5,8.0173364E3,6.6217607E3,1.2783945E3,9.556566E4,8.877148E3,6.254731E3,1.7626057E3,5.264332E3,1.357429E3,9.7850397E2,2.9989062E2,6.432427E4,3.1241389E4,5.785254E3,3.0918945E3,4.589997E3,1.6647334E3,1.3477606E3,4.14845E2,3.9844592E3,1.2798727E3,5.702792E2,4.082248E2,1.02425446E2,1.9746518E2,4.0800586E4,2.3523684E4,5.0861265E3,6.991273E2,2.5799773E3,5.1191718E2,3.8034172E3,7.8658014E2,7.438975E2,6.038631E2,1.5122055E2,2.6362445E2,3.054647E3,9.298122E2,7.779951E2,5.018775E2,5.0439262E1,5.198399E2,3.5175586E2,5.646892E1,1.1216282E2,8.530235E1],"tree_param":{"num_deleted":"0","num_feature":"22","num_nodes":"51","size_leaf_vector":"1"}},{"base_weights":[4.7692746E-1,5.9578186E-1,-6.7172235E-1,7.4093354E-1,-6.201844E-1,-3.8493946E-1,-1.738504E0,4.8198983E-1,1.1659014E-2,-3.349581E-1,-1.7023046E0,-1.0529488E0,1.164081E-2,-1.5700533E0,-2.6782753E0,1.1021268E-2,1.1665826E-2,-9.368142E-1,1.1670085E-2,-1.519278E0,-2.70566E0,-8.961836E-1,-2.4217477E0,-1.8649403E0,1.1715469E-2,-2.2953826E-1,-2.8141246E0,2.4006062E-3,-1.0941026E-2,-5.17323E-3,-1.5991258E-2,-1.8900957E-2,1.1809017E-2,-3.253017E-2,-2.360323E-2,-1.219375E-2,1.1833566E-2,-2.3055967E-2,-4.2968567E-2,-1.6810203E-2,-2.5946163E-2,8.2079815E-3,-1.9598978E-2,-1.8805183E-2,-2.998558E-2],"categories":[],"categories_nodes":[],"categories_segments":[],"categories_sizes":[],"default_left":[0,0,0,0,0,0,0,0,0,0,0,0,0,0,0,0,0,0,0,0,0,0,0,0,0,0,0,0,0,0,0,0,0,0,0,0,0,0,0,0,0,0,0,0,0],"id":17,"left_children":[1,3,5,7,9,11,13,15,-1,17,19,21,-1,23,25,27,-1,29,-1,31,33,35,37,39,-1,41,43,-1,-1,-1,-1,-1,-1,-1,-1,-1,-1,-1,-1,-1,-1,-1,-1,-1,-1],"loss_changes":[1.641136E4,1.9227617E4,3.4479385E3,1.0708723E4,3.5852056E3,9.195428E3,3.7383057E2,1.9498059E4,0E0,8.313497E3,4.408838E2,1.3300801E3,0E0,1.6413042E3,1.1963159E2,9.068859E3,0E0,1.8232646E3,0E0,2.056474E3,6.274243E1,3.7464849E3,1.2891724E2,2.4135498E2,0E0,3.8127037E1,5.3330566E1,0E0,0E0,0E0,0E0,0E0,0E0,0E0,0E0,0E0,0E0,0E0,0E0,0E0,0E0,0E0,0E0,0E0,0E0],"parents":[2147483647,0,0,1,1,2,2,3,3,4,4,5,5,6,6,7,7,9,9,10,10,11,11,13,13,14,14,15,15,17,17,19,19,20,20,21,21,22,22,23,23,25,25,26,26],"right_children":[2,4,6,8,10,12,14,16,-1,18,20,22,-1,24,26,28,-1,30,-1,32,34,36,38,40,-1,42,44,-1,-1,-1,-1,-1,-1,-1,-1,-1,-1,-1,-1,-1,-1,-1,-1,-1,-1],"split_conditions":[9.957444E-1,9.961155E-1,9.9594307E-1,3.7725044E-3,9.9594307E-1,3.8366832E-3,9.754252E-1,4.0212907E-3,1.1659014E-2,3.8366832E-3,9.9556637E-1,9.955656E-1,1.164081E-2,3.7414075E-3,7.70271E3,9.966146E-1,1.1665826E-2,9.966146E-1,1.1670085E-2,3.7414075E-3,4.4216695E4,3.6851163E-3,9.2193414E4,9.958804E-1,1.1715469E-2,1.372263E4,2.5E1,2.4006062E-3,-1.0941026E-2,-5.17323E-3,-1.5991258E-2,-1.8900957E-2,1.1809017E-2,-3.253017E-2,-2.360323E-2,-1.219375E-2,1.1833566E-2,-2.3055967E-2,-4.2968567E-2,-1.6810203E-2,-2.5946163E-2,8.2079815E-3,-1.9598978E-2,-1.8805183E-2,-2.998558E-2],"split_indices":[20,18,4,18,4,4,10,20,0,4,10,12,0,10,3,5,0,5,0,10,2,12,3,8,0,2,1,0,0,0,0,0,0,0,0,0,0,0,0,0,0,0,0,0,0],"split_type":[0,0,0,0,0,0,0,0,0,0,0,0,0,0,0,0,0,0,0,0,0,0,0,0,0,0,0,0,0,0,0,0,0,0,0,0,0,0,0,0,0,0,0,0,0],"sum_hessian":[1.20206336E5,1.0893497E5,1.1271363E4,9.731833E4,1.1616643E4,8.884346E3,2.3870176E3,6.047283E4,3.68455E4,9.194465E3,2.4221772E3,6.207643E3,2.676703E3,2.0264536E3,3.6056393E2,3.5826707E4,2.4646123E4,6.5644053E3,2.6300598E3,2.0506272E3,3.7154984E2,5.571238E3,6.364055E2,1.8299443E3,1.9650934E2,1.9093077E1,3.4147086E2,2.9676889E4,6.149818E3,4.0200127E3,2.5443923E3,1.8032812E3,2.4734602E2,1.4047604E2,2.3107379E2,4.8222085E3,7.4902905E2,6.013833E2,3.50222E1,1.4641887E3,3.6575555E2,1.2208256E1,6.8848205E0,5.8176456E1,2.832944E2],"tree_param":{"num_deleted":"0","num_feature":"22","num_nodes":"45","size_leaf_vector":"1"}},{"base_weights":[4.694392E-1,5.5639493E-1,-1.1380196E0,6.499224E-1,-1.0472761E0,-8.3699137E-1,-2.1123362E0,7.548549E-1,-9.6754444E-1,-8.485483E-1,-2.4124532E0,-1.3999968E0,1.1650644E-2,-9.6173865E-1,-2.2611256E0,8.7269807E-1,-9.26854E-1,-7.342334E-1,-2.233549E0,-1.2006902E0,1.1732742E-2,-2.195761E0,-3.2262256E0,-1.1551095E0,-2.551865E0,-2.896578E0,-4.157099E-1,-2.5019398E0,-1.5264508E0,1.0086432E-2,-9.023844E-3,-6.8805763E-3,-2.203097E-2,-1.200914E-2,1.1675507E-2,-2.0854158E-2,-2.965339E-2,-9.561142E-3,-2.4224173E-2,-2.2942485E-2,1.1155246E-2,-2.8382337E-2,-4.032329E-2,-1.5121164E-2,1.1684403E-2,-1.2879671E-2,-2.6600936E-2,-2.2261221E-2,-4.4570517E-2,-1.8221275E-3,-3.391408E-2,-2.1377115E-2,-2.777707E-2,1.1722025E-2,-2.521391E-2],"categories":[],"categories_nodes":[],"categories_segments":[],"categories_sizes":[],"default_left":[0,0,0,0,0,0,0,0,0,0,0,0,0,0,0,0,0,0,0,0,0,0,0,0,0,0,0,0,0,0,0,0,0,0,0,0,0,0,0,0,0,0,0,0,0,0,0,0,0,0,0,0,0,0,0],"id":18,"left_children":[1,3,5,7,9,11,13,15,17,19,21,23,-1,25,27,29,31,33,35,37,-1,39,41,43,45,47,49,51,53,-1,-1,-1,-1,-1,-1,-1,-1,-1,-1,-1,-1,-1,-1,-1,-1,-1,-1,-1,-1,-1,-1,-1,-1,-1,-1],"loss_changes":[1.6703486E4,1.700384E4,1.7969434E3,1.8181242E4,1.6928994E3,5.28449E3,2.4552881E2,1.9935969E4,1.9260479E3,3.8853315E3,1.3281299E2,1.0290566E3,0E0,1.7567175E2,2.2272266E2,2.2685742E4,2.0061777E3,4.89363E3,1.0385254E2,1.3860776E3,0E0,2.0789868E2,4.0066284E1,2.5060686E3,8.42041E1,2.8454712E1,9.091681E1,9.0768555E1,8.5858234E2,0E0,0E0,0E0,0E0,0E0,0E0,0E0,0E0,0E0,0E0,0E0,0E0,0E0,0E0,0E0,0E0,0E0,0E0,0E0,0E0,0E0,0E0,0E0,0E0,0E0,0E0],"parents":[2147483647,0,0,1,1,2,2,3,3,4,4,5,5,6,6,7,7,8,8,9,9,10,10,11,11,13,13,14,14,15,15,16,16,17,17,18,18,19,19,21,21,22,22,23,23,24,24,25,25,26,26,27,27,28,28],"right_children":[2,4,6,8,10,12,14,16,18,20,22,24,-1,26,28,30,32,34,36,38,-1,40,42,44,46,48,50,52,54,-1,-1,-1,-1,-1,-1,-1,-1,-1,-1,-1,-1,-1,-1,-1,-1,-1,-1,-1,-1,-1,-1,-1,-1,-1,-1],"split_conditions":[9.9568105E-1,9.9669874E-1,9.966146E-1,9.963608E-1,9.958804E-1,3.7314217E-3,7.95346E3,9.9632275E-1,9.9626744E-1,4.0825894E-3,8.440899E-1,9.9626744E-1,1.1650644E-2,3.1741E3,3.639205E-3,9.9594307E-1,9.961155E-1,3.965569E-3,9.3245864E-1,9.9556637E-1,1.1732742E-2,3.965569E-3,5.1E1,3.965569E-3,1.034764E4,2.2935173E3,9.2037296E-1,4.1699438E4,9.8540986E-1,1.0086432E-2,-9.023844E-3,-6.8805763E-3,-2.203097E-2,-1.200914E-2,1.1675507E-2,-2.0854158E-2,-2.965339E-2,-9.561142E-3,-2.4224173E-2,-2.2942485E-2,1.1155246E-2,-2.8382337E-2,-4.032329E-2,-1.5121164E-2,1.1684403E-2,-1.2879671E-2,-2.6600936E-2,-2.2261221E-2,-4.4570517E-2,-1.8221275E-3,-3.391408E-2,-2.1377115E-2,-2.777707E-2,1.1722025E-2,-2.521391E-2],"split_indices":[14,16,5,17,8,5,2,15,21,8,21,21,0,2,11,13,18,21,10,10,0,21,1,21,3,2,10,3,11,0,0,0,0,0,0,0,0,0,0,0,0,0,0,0,0,0,0,0,0,0,0,0,0,0,0],"split_type":[0,0,0,0,0,0,0,0,0,0,0,0,0,0,0,0,0,0,0,0,0,0,0,0,0,0,0,0,0,0,0,0,0,0,0,0,0,0,0,0,0,0,0,0,0,0,0,0,0,0,0,0,0,0,0],"sum_hessian":[1.194948E5,1.13363055E5,6.1317373E3,1.0711653E5,6.2465293E3,4.6858423E3,1.4458951E3,1.0059124E5,6.5252856E3,5.4541885E3,7.923409E2,3.657581E3,1.028261E3,1.6642032E2,1.2794749E3,9.40045E4,6.5867397E3,5.511209E3,1.0140768E3,4.6454873E3,8.087009E2,6.286432E2,1.6369766E2,3.0179648E3,6.396164E2,3.5680946E1,1.3073936E2,9.618055E2,3.1766934E2,8.731769E4,6.686818E3,5.5498525E3,1.0368873E3,4.42558E3,1.0856289E3,8.465608E2,1.67516E2,3.8721162E3,7.733713E2,6.107838E2,1.785942E1,1.1356009E2,5.013757E1,2.6163232E3,4.0164145E2,5.14683E1,5.881481E2,2.6655157E1,9.02579E0,1.2221095E2,8.528419E0,4.1820294E2,5.4360254E2,8.552235E1,2.3214699E2],"tree_param":{"num_deleted":"0","num_feature":"22","num_nodes":"55","size_leaf_vector":"1"}},{"base_weights":[4.6615025E-1,5.8630866E-1,-6.713386E-1,7.3264027E-1,-6.258062E-1,-4.030967E-1,-1.6416914E0,9.188682E-1,-6.088147E-1,-3.5144204E-1,-1.6356585E0,-1.0470679E0,1.1609523E-2,-1.5021043E0,-2.624231E0,1.1633287E-2,-5.778969E-1,-3.0895427E-1,-1.8143643E0,-9.437395E-1,1.1639162E-2,-1.4859654E0,-2.7184799E0,-1.5855384E0,-6.8520606E-1,-1.7714087E0,1.1757088E-2,-2.3281503E0,-3.3250747E0,-3.0179333E-3,-1.6368976E-2,-9.988734E-3,1.1731184E-2,-2.0700261E-2,-1.091216E-2,-1.6130706E-2,-5.4041836E-3,-1.7494816E-2,1.1723934E-2,-2.5126278E-2,-3.935377E-2,-1.8412124E-2,-8.690648E-3,1.1678177E-2,-1.5370059E-2,-1.983979E-2,-1.1644759E-2,-1.1758023E-2,-2.5548298E-2,-3.598931E-2,-1.2795167E-2],"categories":[],"categories_nodes":[],"categories_segments":[],"categories_sizes":[],"default_left":[0,0,0,0,0,0,0,0,0,0,0,0,0,0,0,0,0,0,0,0,0,0,0,0,0,0,0,0,0,0,0,0,0,0,0,0,0,0,0,0,0,0,0,0,0,0,0,0,0,0,0],"id":19,"left_children":[1,3,5,7,9,11,13,15,17,19,21,23,-1,25,27,-1,29,31,33,35,-1,37,39,41,43,45,-1,47,49,-1,-1,-1,-1,-1,-1,-1,-1,-1,-1,-1,-1,-1,-1,-1,-1,-1,-1,-1,-1,-1,-1],"loss_changes":[1.6265148E4,1.9091008E4,2.9588193E3,2.3992262E4,3.2118843E3,8.974288E3,3.3373047E2,3.0857219E4,4.2317573E3,8.1855176E3,3.974297E2,1.2286504E3,0E0,1.5584136E3,5.553369E1,0E0,3.4615405E3,9.589166E3,4.2885645E2,1.7691436E3,0E0,1.5279277E3,6.516504E1,4.6291992E2,5.962368E3,2.5073242E2,0E0,5.3863037E1,4.481891E1,0E0,0E0,0E0,0E0,0E0,0E0,0E0,0E0,0E0,0E0,0E0,0E0,0E0,0E0,0E0,0E0,0E0,0E0,0E0,0E0,0E0,0E0],"parents":[2147483647,0,0,1,1,2,2,3,3,4,4,5,5,6,6,7,7,8,8,9,9,10,10,11,11,13,13,14,14,16,16,17,17,18,18,19,19,21,21,22,22,23,23,24,24,25,25,27,27,28,28],"right_children":[2,4,6,8,10,12,14,16,18,20,22,24,-1,26,28,-1,30,32,34,36,-1,38,40,42,44,46,-1,48,50,-1,-1,-1,-1,-1,-1,-1,-1,-1,-1,-1,-1,-1,-1,-1,-1,-1,-1,-1,-1,-1,-1],"split_conditions":[9.957444E-1,9.961155E-1,9.9594307E-1,9.9616325E-1,9.9594307E-1,3.8366832E-3,9.955656E-1,9.9626744E-1,9.962126E-1,3.8366832E-3,9.9214906E-1,3.7314217E-3,1.1609523E-2,3.6851163E-3,6.4893004E4,1.1633287E-2,9.9594307E-1,3.8978201E-3,3.639205E-3,3.7314217E-3,1.1639162E-2,3.6374654E-3,8.120059E4,3.639205E-3,9.928486E-1,3.8275488E-3,1.1757088E-2,2.4E1,9.448182E4,-3.0179333E-3,-1.6368976E-2,-9.988734E-3,1.1731184E-2,-2.0700261E-2,-1.091216E-2,-1.6130706E-2,-5.4041836E-3,-1.7494816E-2,1.1723934E-2,-2.5126278E-2,-3.935377E-2,-1.8412124E-2,-8.690648E-3,1.1678177E-2,-1.5370059E-2,-1.983979E-2,-1.1644759E-2,-1.1758023E-2,-2.5548298E-2,-3.598931E-2,-1.2795167E-2],"split_indices":[20,18,4,19,4,4,12,21,6,4,15,5,0,12,2,0,4,6,11,5,0,15,3,11,5,16,0,1,3,0,0,0,0,0,0,0,0,0,0,0,0,0,0,0,0,0,0,0,0,0,0],"split_type":[0,0,0,0,0,0,0,0,0,0,0,0,0,0,0,0,0,0,0,0,0,0,0,0,0,0,0,0,0,0,0,0,0,0,0,0,0,0,0,0,0,0,0,0,0,0,0,0,0,0,0],"sum_hessian":[1.189988E5,1.0762982E5,1.1368971E4,9.603631E4,1.1593509E4,8.907906E3,2.461064E3,8.432955E4,1.1706765E4,9.117694E3,2.475815E3,6.310141E3,2.5977654E3,2.1571335E3,3.0393027E2,7.2490234E4,1.1839311E4,9.375917E3,2.3308474E3,6.5556934E3,2.5620007E3,2.177203E3,2.986121E2,2.534815E3,3.7753264E3,1.9603247E3,1.9680894E2,2.167031E2,8.722719E1,9.391925E3,2.447386E3,6.3979404E3,2.9779768E3,1.7206622E3,6.101851E2,2.4638364E3,4.091857E3,1.9811577E3,1.960452E2,2.5802844E2,4.0583633E1,1.8670034E3,6.6781146E2,1.1888044E3,2.586522E3,1.4501567E3,5.1016794E2,3.6637886E1,1.800652E2,7.625843E1,1.0968758E1],"tree_param":{"num_deleted":"0","num_feature":"22","num_nodes":"51","size_leaf_vector":"1"}},{"base_weights":[4.6458694E-1,6.163406E-1,-4.183833E-1,2.0450151E-1,1.1636957E-2,-2.0939474E-1,-1.7650408E0,3.5751233E-1,-1.0428071E0,-6.4456713E-1,1.1628593E-2,-2.0651662E0,-9.443998E-1,-1.785349E-2,1.161514E-2,-8.5840964E-1,-2.31655E0,-4.643091E-1,-2.0824573E0,-1.8909438E0,-2.925288E0,1.1826019E-2,-2.193428E0,1.2997453E-3,-1.5874717E-2,-1.2151646E-2,1.1775818E-2,-1.9184746E-2,-2.77476E-2,-8.562602E-3,1.1699572E-2,-2.2370698E-2,-1.4527266E-2,-1.7077262E-2,-2.6546862E-2,-3.2499865E-2,-1.8332383E-2,-2.330424E-2,-1.594837E-2],"categories":[],"categories_nodes":[],"categories_segments":[],"categories_sizes":[],"default_left":[0,0,0,0,0,0,0,0,0,0,0,0,0,0,0,0,0,0,0,0,0,0,0,0,0,0,0,0,0,0,0,0,0,0,0,0,0,0,0],"id":20,"left_children":[1,3,5,7,-1,9,11,13,15,17,-1,19,21,23,-1,25,27,29,31,33,35,-1,37,-1,-1,-1,-1,-1,-1,-1,-1,-1,-1,-1,-1,-1,-1,-1,-1],"loss_changes":[1.5932906E4,2.287275E4,4.907714E3,1.1051179E4,0E0,9.016609E3,5.750493E2,1.5565506E4,1.4841069E3,2.9702197E3,0E0,2.5139355E2,1.6741487E3,8.158922E3,0E0,4.017154E3,1.4051709E2,6.5266953E3,1.2105469E2,1.953667E2,9.5795166E1,0E0,2.8819214E1,0E0,0E0,0E0,0E0,0E0,0E0,0E0,0E0,0E0,0E0,0E0,0E0,0E0,0E0,0E0,0E0],"parents":[2147483647,0,0,1,1,2,2,3,3,5,5,6,6,7,7,8,8,9,9,11,11,12,12,13,13,15,15,16,16,17,17,18,18,19,19,20,20,22,22],"right_children":[2,4,6,8,-1,10,12,14,16,18,-1,20,22,24,-1,26,28,30,32,34,36,-1,38,-1,-1,-1,-1,-1,-1,-1,-1,-1,-1,-1,-1,-1,-1,-1,-1],"split_conditions":[9.962126E-1,3.8978201E-3,9.9616325E-1,9.961155E-1,1.1636957E-2,3.7393358E-3,3.639205E-3,3.7725044E-3,9.961869E-1,9.960929E-1,1.1628593E-2,6E1,9.9248964E-1,9.9556637E-1,1.161514E-2,4.2098057E-3,1E0,3.639205E-3,3.6374654E-3,9.961869E-1,3.6374654E-3,1.1826019E-2,3.8275488E-3,1.2997453E-3,-1.5874717E-2,-1.2151646E-2,1.1775818E-2,-1.9184746E-2,-2.77476E-2,-8.562602E-3,1.1699572E-2,-2.2370698E-2,-1.4527266E-2,-1.7077262E-2,-2.6546862E-2,-3.2499865E-2,-1.8332383E-2,-2.330424E-2,-1.594837E-2],"split_indices":[6,6,19,18,0,19,11,18,9,11,0,1,11,10,0,9,0,11,15,9,15,0,16,0,0,0,0,0,0,0,0,0,0,0,0,0,0,0,0],"split_type":[0,0,0,0,0,0,0,0,0,0,0,0,0,0,0,0,0,0,0,0,0,0,0,0,0,0,0,0,0,0,0,0,0,0,0,0,0,0,0],"sum_hessian":[1.1890475E5,1.0146632E5,1.743843E4,5.7901582E4,4.356474E4,1.5096718E4,2.341713E3,5.15754E4,6.326184E3,1.1462298E4,3.63442E3,1.7135247E3,6.281881E2,3.516079E4,1.6414607E4,5.527633E3,7.985513E2,1.01866E4,1.2756981E3,1.4275625E3,2.8596222E2,2.3243015E2,3.9575797E2,3.2135188E4,3.0256025E3,4.703814E3,8.2381885E2,4.3009137E2,3.6845987E2,8.216489E3,1.97011E3,1.0221789E3,2.5351915E2,1.1539679E3,2.735946E2,2.1890057E2,6.706163E1,3.1969748E2,7.606049E1],"tree_param":{"num_deleted":"0","num_feature":"22","num_nodes":"39","size_leaf_vector":"1"}},{"base_weights":[4.6226868E-1,5.8110684E-1,-6.55027E-1,7.265418E-1,-5.9428555E-1,-3.850151E-1,-1.6302341E0,9.135426E-1,-5.770736E-1,-3.3241472E-1,-1.5712266E0,-1.0102395E0,1.1581714E-2,-1.4720856E0,-2.5007217E0,1.160081E-2,-5.8509374E-1,-2.99517E-1,-1.6137455E0,-1.0254159E0,1.1731013E-2,-1.422405E0,-2.6971343E0,-8.422934E-1,-2.0165746E0,-1.744617E0,1.1686537E-2,-1.8285335E0,-2.6955879E0,-2.849612E-3,-1.7605783E-2,-9.399316E-3,1.1730522E-2,-1.8378865E-2,-8.290695E-3,-8.486223E-3,-2.2284593E-2,-1.5762206E-2,1.1812633E-2,-2.5344945E-2,-4.094551E-2,-1.1344741E-2,1.1813985E-2,-3.7598114E-2,-1.8930405E-2,-1.5843261E-2,-2.3268718E-2,-5.9784465E-3,-2.2398902E-2,-2.7373085E-2,9.316048E-3],"categories":[],"categories_nodes":[],"categories_segments":[],"categories_sizes":[],"default_left":[0,0,0,0,0,0,0,0,0,0,0,0,0,0,0,0,0,0,0,0,0,0,0,0,0,0,0,0,0,0,0,0,0,0,0,0,0,0,0,0,0,0,0,0,0,0,0,0,0,0,0],"id":21,"left_children":[1,3,5,7,9,11,13,15,17,19,21,23,-1,25,27,-1,29,31,33,35,-1,37,39,41,43,45,-1,47,49,-1,-1,-1,-1,-1,-1,-1,-1,-1,-1,-1,-1,-1,-1,-1,-1,-1,-1,-1,-1,-1,-1],"loss_changes":[1.5725641E4,1.8299562E4,2.997581E3,2.322311E4,3.015102E3,8.606181E3,3.3617236E2,3.0781758E4,3.4383423E3,9.701017E3,4.1363477E2,1.0711113E3,0E0,1.5073042E3,4.4599365E1,0E0,4.1519375E3,8.892732E3,4.4236133E2,1.3523105E3,0E0,8.840176E2,5.547705E1,3.2188071E3,1.8823022E2,1.7329541E2,0E0,4.3256165E1,4.659131E1,0E0,0E0,0E0,0E0,0E0,0E0,0E0,0E0,0E0,0E0,0E0,0E0,0E0,0E0,0E0,0E0,0E0,0E0,0E0,0E0,0E0,0E0],"parents":[2147483647,0,0,1,1,2,2,3,3,4,4,5,5,6,6,7,7,8,8,9,9,10,10,11,11,13,13,14,14,16,16,17,17,18,18,19,19,21,21,22,22,23,23,24,24,25,25,27,27,28,28],"right_children":[2,4,6,8,10,12,14,16,18,20,22,24,-1,26,28,-1,30,32,34,36,-1,38,40,42,44,46,-1,48,50,-1,-1,-1,-1,-1,-1,-1,-1,-1,-1,-1,-1,-1,-1,-1,-1,-1,-1,-1,-1,-1,-1],"split_conditions":[9.957444E-1,9.961155E-1,9.9594307E-1,9.9626744E-1,9.962126E-1,3.8366832E-3,9.8016745E-1,9.9616325E-1,9.966146E-1,3.8978201E-3,9.873609E-1,9.958804E-1,1.1581714E-2,3.7414075E-3,2.402765E4,1.160081E-2,9.966146E-1,3.7314217E-3,3.6374654E-3,9.961869E-1,1.1731013E-2,3.6851163E-3,8.840913E4,4.0825894E-3,1.453971E4,9.963333E-1,1.1686537E-2,1.722002E4,3.7725044E-3,-2.849612E-3,-1.7605783E-2,-9.399316E-3,1.1730522E-2,-1.8378865E-2,-8.290695E-3,-8.486223E-3,-2.2284593E-2,-1.5762206E-2,1.1812633E-2,-2.5344945E-2,-4.094551E-2,-1.1344741E-2,1.1813985E-2,-3.7598114E-2,-1.8930405E-2,-1.5843261E-2,-2.3268718E-2,-5.9784465E-3,-2.2398902E-2,-2.7373085E-2,9.316048E-3],"split_indices":[20,18,4,21,6,4,10,19,5,6,12,8,0,10,3,0,5,5,15,9,0,12,3,8,3,7,0,2,18,0,0,0,0,0,0,0,0,0,0,0,0,0,0,0,0,0,0,0,0,0,0],"split_type":[0,0,0,0,0,0,0,0,0,0,0,0,0,0,0,0,0,0,0,0,0,0,0,0,0,0,0,0,0,0,0,0,0,0,0,0,0,0,0,0,0,0,0,0,0,0,0,0,0,0,0],"sum_hessian":[1.184323E5,1.07047016E5,1.1385288E4,9.526051E4,1.1786503E4,8.917607E3,2.4676804E3,8.331015E4,1.195036E4,9.296026E3,2.4904766E3,6.346613E3,2.5709946E3,2.0905625E3,3.7711813E2,7.1541234E4,1.1768912E4,9.427538E3,2.5228225E3,6.366016E3,2.9300098E3,2.2017183E3,2.8875824E2,5.4404927E3,9.061204E2,1.8953015E3,1.9526086E2,8.708907E1,2.9002905E2,9.376169E3,2.3927432E3,6.5704404E3,2.8570974E3,1.9612527E3,5.615697E2,5.5518486E3,8.141677E2,2.0792764E3,1.2244185E2,2.611749E2,2.7583359E1,4.75448E3,6.860128E2,5.80149E1,8.481055E2,1.4890868E3,4.0621475E2,2.2431711E1,6.4657364E1,2.8697357E2,3.055489E0],"tree_param":{"num_deleted":"0","num_feature":"22","num_nodes":"51","size_leaf_vector":"1"}},{"base_weights":[4.5984325E-1,5.590583E-1,-8.9482117E-1,6.728474E-1,-8.8148415E-1,-6.6612333E-1,-2.1465566E0,8.061181E-1,-8.271455E-1,-6.0479623E-1,-1.8374705E0,-1.1266357E0,1.1645898E-2,-2.3396764E0,-1.3992056E0,9.665602E-1,-7.94037E-1,-6.0490644E-1,-2.0740755E0,-1.2507174E0,1.1590828E-2,-1.626517E0,-2.6902845E0,-8.4856224E-1,-2.030485E0,-2.4645407E0,-1.625288E0,1.17990775E-2,-2.338965E0,1.1616448E-2,-7.0994035E-3,-5.187345E-3,-1.7561106E-2,-9.926511E-3,1.1602751E-2,-1.6585238E-2,-2.6043538E-2,-1.08992355E-2,-2.581401E-2,-1.8567627E-2,1.159392E-2,-1.2967086E-2,-2.8632408E-2,-1.4680083E-2,1.1630316E-2,-2.3220966E-2,-1.5610322E-2,-2.3014942E-2,-3.2358926E-2,-2.4913764E-2,-9.676097E-4,-2.5848866E-2,-5.757979E-3],"categories":[],"categories_nodes":[],"categories_segments":[],"categories_sizes":[],"default_left":[0,0,0,0,0,0,0,0,0,0,0,0,0,0,0,0,0,0,0,0,0,0,0,0,0,0,0,0,0,0,0,0,0,0,0,0,0,0,0,0,0,0,0,0,0,0,0,0,0,0,0,0,0],"id":22,"left_children":[1,3,5,7,9,11,13,15,17,19,21,23,-1,25,27,29,31,33,35,37,-1,39,41,43,45,47,49,-1,51,-1,-1,-1,-1,-1,-1,-1,-1,-1,-1,-1,-1,-1,-1,-1,-1,-1,-1,-1,-1,-1,-1,-1,-1],"loss_changes":[1.5855082E4,1.8017402E4,2.303141E3,2.036452E4,2.1273877E3,5.7410635E3,1.7615088E2,2.4019586E4,2.3023218E3,7.1133716E3,3.2048438E2,1.3656284E3,0E0,8.398389E1,6.2751733E2,2.7810922E4,2.257359E3,4.8309893E3,2.7267773E2,9.7491113E2,0E0,9.3235986E2,8.222876E1,5.187972E3,1.7150049E2,9.790869E1,1.979307E2,0E0,8.057544E1,0E0,0E0,0E0,0E0,0E0,0E0,0E0,0E0,0E0,0E0,0E0,0E0,0E0,0E0,0E0,0E0,0E0,0E0,0E0,0E0,0E0,0E0,0E0,0E0],"parents":[2147483647,0,0,1,1,2,2,3,3,4,4,5,5,6,6,7,7,8,8,9,9,10,10,11,11,13,13,14,14,15,15,16,16,17,17,18,18,19,19,21,21,22,22,23,23,24,24,25,25,26,26,28,28],"right_children":[2,4,6,8,10,12,14,16,18,20,22,24,-1,26,28,30,32,34,36,38,-1,40,42,44,46,48,50,-1,52,-1,-1,-1,-1,-1,-1,-1,-1,-1,-1,-1,-1,-1,-1,-1,-1,-1,-1,-1,-1,-1,-1,-1,-1],"split_conditions":[9.963333E-1,9.960929E-1,9.9626744E-1,9.9556637E-1,9.9594307E-1,3.965569E-3,3.6374654E-3,9.958804E-1,9.9626744E-1,3.8366832E-3,9.9626744E-1,9.9616325E-1,1.1645898E-2,8.680751E4,9.3869495E-1,9.961869E-1,9.962126E-1,3.965569E-3,1E0,9.955656E-1,1.1590828E-2,3.965569E-3,1.378899E4,3.7393358E-3,3.8366832E-3,8.711945E-1,8.153631E4,1.17990775E-2,9.283907E4,1.1616448E-2,-7.0994035E-3,-5.187345E-3,-1.7561106E-2,-9.926511E-3,1.1602751E-2,-1.6585238E-2,-2.6043538E-2,-1.08992355E-2,-2.581401E-2,-1.8567627E-2,1.159392E-2,-1.2967086E-2,-2.8632408E-2,-1.4680083E-2,1.1630316E-2,-2.3220966E-2,-1.5610322E-2,-2.3014942E-2,-3.2358926E-2,-2.4913764E-2,-9.676097E-4,-2.5848866E-2,-5.757979E-3],"split_indices":[7,11,21,10,4,21,15,8,21,4,21,19,0,2,15,9,6,21,0,12,0,21,3,19,4,16,3,0,2,0,0,0,0,0,0,0,0,0,0,0,0,0,0,0,0,0,0,0,0,0,0,0,0],"split_type":[0,0,0,0,0,0,0,0,0,0,0,0,0,0,0,0,0,0,0,0,0,0,0,0,0,0,0,0,0,0,0,0,0,0,0,0,0,0,0,0,0,0,0,0,0,0,0,0,0,0,0,0,0],"sum_hessian":[1.1796191E5,1.0991255E5,8.0493613E3,1.01866586E5,8.045954E3,6.807189E3,1.2421726E3,9.355492E4,8.311664E3,6.2412134E3,1.804741E3,5.4393228E3,1.3678663E3,9.8540735E2,2.567653E2,8.502969E4,8.52524E3,7.055631E3,1.2560328E3,4.5685356E3,1.6726776E3,1.4491772E3,3.5556372E2,4.1610845E3,1.278238E3,8.367126E2,1.4869473E2,6.850417E1,1.8826112E2,7.616689E4,8.862791E3,6.6296655E3,1.8955747E3,5.785262E3,1.2703689E3,7.0650745E2,5.495254E2,4.0776318E3,4.909038E2,1.3388588E3,1.1031853E2,4.0194977E1,3.1536874E2,3.181615E3,9.7946954E2,7.860303E2,4.9220773E2,6.9400024E2,1.4271233E2,9.45125E1,5.4182243E1,1.648081E2,2.3453016E1],"tree_param":{"num_deleted":"0","num_feature":"22","num_nodes":"53","size_leaf_vector":"1"}},{"base_weights":[4.5699033E-1,5.5499446E-1,-8.6771333E-1,6.6855854E-1,-8.5635054E-1,-6.031977E-1,-1.7741381E0,8.0195177E-1,-8.231428E-1,-5.5833536E-1,-1.9092917E0,-1.2439896E0,1.1572163E-2,-1.5541773E0,-2.6823208E0,9.634829E-1,-7.933763E-1,-6.0148007E-1,-2.0587587E0,-1.1467832E0,1.1614361E-2,-2.1652892E0,-1.0524288E0,-8.93975E-1,-1.7508626E0,-1.7975718E0,1.1572638E-2,-1.2296858E0,-2.7923317E0,8.485843E-3,1.1602058E-2,-5.1802914E-3,-1.7589891E-2,-9.872445E-3,1.1583988E-2,-1.6245276E-2,-2.604992E-2,-9.3947435E-3,-2.1248484E-2,-1.8698137E-2,-2.5156567E-2,1.1569386E-2,-2.1247165E-2,-1.4788438E-2,-5.31078E-3,-1.6278822E-2,-2.6322454E-2,-2.0054579E-2,-1.0581622E-2,-1.8201179E-3,-2.7755799E-2,2.7625412E-3,-2.844971E-2],"categories":[],"categories_nodes":[],"categories_segments":[],"categories_sizes":[],"default_left":[0,0,0,0,0,0,0,0,0,0,0,0,0,0,0,0,0,0,0,0,0,0,0,0,0,0,0,0,0,0,0,0,0,0,0,0,0,0,0,0,0,0,0,0,0,0,0,0,0,0,0,0,0],"id":23,"left_children":[1,3,5,7,9,11,13,15,17,19,21,23,-1,25,27,29,31,33,35,37,-1,39,41,43,45,47,-1,49,51,-1,-1,-1,-1,-1,-1,-1,-1,-1,-1,-1,-1,-1,-1,-1,-1,-1,-1,-1,-1,-1,-1,-1,-1],"loss_changes":[1.5270223E4,1.7553445E4,1.9416099E3,2.0169512E4,2.5583267E3,7.0784834E3,3.6136768E2,2.3976812E4,2.277648E3,6.436093E3,3.923047E2,8.14521E2,0E0,9.7579736E2,5.3360596E1,1.9086797E3,2.2736733E3,4.7916245E3,2.9585938E2,9.586846E2,0E0,1.3858447E2,9.8738367E2,5.771699E2,1.9926562E2,2.0605078E2,0E0,4.2911175E1,5.4023926E1,0E0,0E0,0E0,0E0,0E0,0E0,0E0,0E0,0E0,0E0,0E0,0E0,0E0,0E0,0E0,0E0,0E0,0E0,0E0,0E0,0E0,0E0,0E0,0E0],"parents":[2147483647,0,0,1,1,2,2,3,3,4,4,5,5,6,6,7,7,8,8,9,9,10,10,11,11,13,13,14,14,15,15,16,16,17,17,18,18,19,19,21,21,22,22,23,23,24,24,25,25,27,27,28,28],"right_children":[2,4,6,8,10,12,14,16,18,20,22,24,-1,26,28,30,32,34,36,38,-1,40,42,44,46,48,-1,50,52,-1,-1,-1,-1,-1,-1,-1,-1,-1,-1,-1,-1,-1,-1,-1,-1,-1,-1,-1,-1,-1,-1,-1,-1],"split_conditions":[9.960929E-1,9.963333E-1,9.9594307E-1,9.9556637E-1,9.966146E-1,3.8366832E-3,9.9626744E-1,9.958804E-1,9.9626744E-1,3.7314217E-3,3.6619438E-3,1E0,1.1572163E-2,3.965569E-3,1.074493E4,3.7414075E-3,9.962126E-1,3.965569E-3,1E0,9.9626744E-1,1.1614361E-2,1E0,9.920002E-1,3.7314217E-3,9.9669874E-1,4.356545E-3,1.1572638E-2,3.8E1,5.707115E2,8.485843E-3,1.1602058E-2,-5.1802914E-3,-1.7589891E-2,-9.872445E-3,1.1583988E-2,-1.6245276E-2,-2.604992E-2,-9.3947435E-3,-2.1248484E-2,-1.8698137E-2,-2.5156567E-2,1.1569386E-2,-2.1247165E-2,-1.4788438E-2,-5.31078E-3,-1.6278822E-2,-2.6322454E-2,-2.0054579E-2,-1.0581622E-2,-1.8201179E-3,-2.7755799E-2,2.7625412E-3,-2.844971E-2],"split_indices":[11,7,4,10,5,4,21,8,21,5,13,0,0,21,3,10,6,21,0,21,0,0,13,5,16,17,0,1,2,0,0,0,0,0,0,0,0,0,0,0,0,0,0,0,0,0,0,0,0,0,0,0,0],"split_type":[0,0,0,0,0,0,0,0,0,0,0,0,0,0,0,0,0,0,0,0,0,0,0,0,0,0,0,0,0,0,0,0,0,0,0,0,0,0,0,0,0,0,0,0,0,0,0,0,0,0,0,0,0],"sum_hessian":[1.1761558E5,1.0951409E5,8.1014844E3,1.0135877E5,8.1553228E3,6.272647E3,1.8288372E3,9.303933E4,8.319441E3,6.357486E3,1.7978365E3,4.5989277E3,1.6737194E3,1.4744408E3,3.5439645E2,8.448536E4,8.553971E3,7.055254E3,1.2641871E3,4.736983E3,1.6205028E3,1.3830944E3,4.1474216E2,2.7220295E3,1.8768982E3,1.353298E3,1.2114275E2,2.5806955E1,3.2858948E2,5.333794E4,3.1147418E4,6.657191E3,1.8967802E3,5.7871523E3,1.2681016E3,7.065139E2,5.576732E2,3.9101545E3,8.268285E2,7.5376135E2,6.29333E2,1.3549208E2,2.792501E2,1.0410806E3,1.680949E3,1.6495776E3,2.2732056E2,1.0549773E3,2.9832068E2,1.6048443E1,9.758513E0,5.4700117E0,3.2311948E2],"tree_param":{"num_deleted":"0","num_feature":"22","num_nodes":"53","size_leaf_vector":"1"}},{"base_weights":[4.5190987E-1,6.032852E-1,-4.0427676E-1,1.9720015E-1,1.157784E-2,-2.0349537E-1,-1.6794317E0,3.4806076E-1,-1.0356299E0,-6.2669027E-1,1.1569041E-2,-1.9150428E0,-8.756718E-1,-1.1551482E-2,1.1565828E-2,-6.181299E-1,-1.6939604E0,-3.6691144E-1,-1.5053952E0,-2.126744E0,-1.289306E0,1.1894222E-2,-2.1678717E0,2.090372E-3,-1.011838E-2,-4.52265E-3,-1.9915856E-2,-1.5115641E-2,-2.7506856E-2,-9.863181E-3,1.1571143E-2,-1.7485302E-2,-8.428899E-3,-1.9969888E-2,-2.7149364E-2,1.1810482E-2,-2.5179898E-2,-2.5469359E-2,-1.5624555E-2],"categories":[],"categories_nodes":[],"categories_segments":[],"categories_sizes":[],"default_left":[0,0,0,0,0,0,0,0,0,0,0,0,0,0,0,0,0,0,0,0,0,0,0,0,0,0,0,0,0,0,0,0,0,0,0,0,0,0,0],"id":24,"left_children":[1,3,5,7,-1,9,11,13,15,17,-1,19,21,23,-1,25,27,29,31,33,35,-1,37,-1,-1,-1,-1,-1,-1,-1,-1,-1,-1,-1,-1,-1,-1,-1,-1],"loss_changes":[1.5187238E4,2.242125E4,4.507128E3,1.0690912E4,0E0,8.758243E3,4.518457E2,1.4890811E4,1.7215186E3,2.648043E3,0E0,2.4247461E2,1.4561731E3,7.8220806E3,0E0,8.731227E2,4.645083E2,8.456214E3,4.24938E2,1.0002539E2,1.431065E3,0E0,7.299585E1,0E0,0E0,0E0,0E0,0E0,0E0,0E0,0E0,0E0,0E0,0E0,0E0,0E0,0E0,0E0,0E0],"parents":[2147483647,0,0,1,1,2,2,3,3,5,5,6,6,7,7,8,8,9,9,11,11,12,12,13,13,15,15,16,16,17,17,18,18,19,19,20,20,22,22],"right_children":[2,4,6,8,-1,10,12,14,16,18,-1,20,22,24,-1,26,28,30,32,34,36,-1,38,-1,-1,-1,-1,-1,-1,-1,-1,-1,-1,-1,-1,-1,-1,-1,-1],"split_conditions":[9.962126E-1,3.8978201E-3,9.9616325E-1,9.9626744E-1,1.157784E-2,3.7393358E-3,3.6619438E-3,3.965569E-3,1E0,9.9626744E-1,1.1569041E-2,3.7414075E-3,9.6318716E-1,9.961155E-1,1.1565828E-2,9.9556637E-1,9.9556637E-1,3.965569E-3,3.7414075E-3,9.484948E-1,9.9158436E-1,1.1894222E-2,6.817751E4,2.090372E-3,-1.011838E-2,-4.52265E-3,-1.9915856E-2,-1.5115641E-2,-2.7506856E-2,-9.863181E-3,1.1571143E-2,-1.7485302E-2,-8.428899E-3,-1.9969888E-2,-2.7149364E-2,1.1810482E-2,-2.5179898E-2,-2.5469359E-2,-1.5624555E-2],"split_indices":[6,6,19,21,0,19,13,21,0,21,0,10,13,18,0,10,10,21,10,12,10,0,2,0,0,0,0,0,0,0,0,0,0,0,0,0,0,0,0],"split_type":[0,0,0,0,0,0,0,0,0,0,0,0,0,0,0,0,0,0,0,0,0,0,0,0,0,0,0,0,0,0,0,0,0,0,0,0,0,0,0],"sum_hessian":[1.1717757E5,9.957316E4,1.7604418E4,5.747957E4,4.2093586E4,1.5210574E4,2.3938435E3,5.1213344E4,6.2662256E3,1.160196E4,3.6086138E3,1.850123E3,5.437206E2,3.5447906E4,1.57654375E4,3.8356636E3,2.430562E3,8.955723E3,2.646237E3,1.3806263E3,4.694967E2,2.0930501E2,3.3441556E2,2.9043799E4,6.4041064E3,3.423549E3,4.1211444E2,2.0748606E3,3.5570135E2,6.367959E3,2.5877642E3,1.9346093E3,7.116279E2,1.1347056E3,2.4592078E2,1.5596233E2,3.1353436E2,2.0368013E2,1.3073541E2],"tree_param":{"num_deleted":"0","num_feature":"22","num_nodes":"39","size_leaf_vector":"1"}},{"base_weights":[4.5173618E-1,5.703507E-1,-6.435433E-1,7.1597993E-1,-5.927051E-1,-4.9338618E-1,-2.1115851E0,9.0216446E-1,-5.761023E-1,-3.3388898E-1,-1.4937004E0,-8.0926603E-1,1.17013035E-2,-2.526532E0,-1.4973869E0,7.1396446E-1,1.15511045E-2,-2.8581208E-1,-1.70145E0,-9.6969706E-1,1.1715519E-2,-1.3588961E0,-2.4890144E0,-5.6296563E-1,-1.616865E0,-1.3995671E0,-2.719213E0,1.1628034E-2,-2.1691043E0,2.844182E-3,1.15393335E-2,-9.123757E-3,1.1732843E-2,-1.26212835E-2,-2.315753E-2,-8.095661E-3,-2.3667792E-2,-1.604551E-2,1.1966366E-2,-3.166572E-2,-2.0795336E-2,-1.1172018E-2,1.1555038E-2,-1.8631605E-2,-9.402677E-3,-2.4482703E-2,6.718234E-4,-3.35955E-2,-2.4850095E-2,-1.15919905E-2,-2.5366742E-2],"categories":[],"categories_nodes":[],"categories_segments":[],"categories_sizes":[],"default_left":[0,0,0,0,0,0,0,0,0,0,0,0,0,0,0,0,0,0,0,0,0,0,0,0,0,0,0,0,0,0,0,0,0,0,0,0,0,0,0,0,0,0,0,0,0,0,0,0,0,0,0],"id":25,"left_children":[1,3,5,7,9,11,13,15,17,19,21,23,-1,25,27,29,-1,31,33,35,-1,37,39,41,43,45,47,-1,49,-1,-1,-1,-1,-1,-1,-1,-1,-1,-1,-1,-1,-1,-1,-1,-1,-1,-1,-1,-1,-1,-1],"loss_changes":[1.5208152E4,1.7889938E4,2.5204785E3,2.2581922E4,2.7404243E3,5.45461E3,2.6665576E2,3.9049219E3,3.8618442E3,8.7423E3,3.485044E2,1.7341875E3,0E0,1.3339282E2,7.7141785E2,8.890822E3,0E0,8.594559E3,6.513208E2,1.4346001E3,0E0,1.453352E3,7.987732E1,6.369188E3,3.37875E2,1.4523668E2,7.241235E1,0E0,1.2471802E2,0E0,0E0,0E0,0E0,0E0,0E0,0E0,0E0,0E0,0E0,0E0,0E0,0E0,0E0,0E0,0E0,0E0,0E0,0E0,0E0,0E0,0E0],"parents":[2147483647,0,0,1,1,2,2,3,3,4,4,5,5,6,6,7,7,8,8,9,9,10,10,11,11,13,13,14,14,15,15,17,17,18,18,19,19,21,21,22,22,23,23,24,24,25,25,26,26,28,28],"right_children":[2,4,6,8,10,12,14,16,18,20,22,24,-1,26,28,30,-1,32,34,36,-1,38,40,42,44,46,48,-1,50,-1,-1,-1,-1,-1,-1,-1,-1,-1,-1,-1,-1,-1,-1,-1,-1,-1,-1,-1,-1,-1,-1],"split_conditions":[9.957444E-1,9.961155E-1,9.9632275E-1,9.9616325E-1,9.966146E-1,3.6374654E-3,3.8978201E-3,3.7393358E-3,9.966146E-1,3.7314217E-3,9.9097013E-1,9.962126E-1,1.17013035E-2,1.453971E4,9.6547025E-1,3.7725044E-3,1.15511045E-2,3.7314217E-3,1E0,9.9632275E-1,1.1715519E-2,3.6851163E-3,4.1E1,3.8978201E-3,4.2098057E-3,3.639205E-3,3.4E1,1.1628034E-2,1.869512E4,2.844182E-3,1.15393335E-2,-9.123757E-3,1.1732843E-2,-1.26212835E-2,-2.315753E-2,-8.095661E-3,-2.3667792E-2,-1.604551E-2,1.1966366E-2,-3.166572E-2,-2.0795336E-2,-1.1172018E-2,1.1555038E-2,-1.8631605E-2,-9.402677E-3,-2.4482703E-2,6.718234E-4,-3.35955E-2,-2.4850095E-2,-1.15919905E-2,-2.5366742E-2],"split_indices":[20,18,15,19,5,15,6,19,5,5,12,6,0,3,6,18,0,5,0,15,0,12,1,6,9,11,1,0,2,0,0,0,0,0,0,0,0,0,0,0,0,0,0,0,0,0,0,0,0,0,0],"split_type":[0,0,0,0,0,0,0,0,0,0,0,0,0,0,0,0,0,0,0,0,0,0,0,0,0,0,0,0,0,0,0,0,0,0,0,0,0,0,0,0,0,0,0,0,0,0,0,0,0,0,0],"sum_hessian":[1.17057555E5,1.0561981E5,1.1437738E4,9.386688E4,1.175293E4,1.0377611E4,1.0601271E3,8.204481E4,1.1822071E4,9.131285E3,2.621644E3,8.721942E3,1.6556682E3,6.3083026E2,4.292968E2,4.7045363E4,3.499945E4,9.398838E3,2.423233E3,6.4201533E3,2.7111323E3,2.3110088E3,3.106352E2,6.684891E3,2.0370514E3,9.331393E1,5.3751636E2,8.6399475E1,3.4289734E2,2.3805475E4,2.3239889E4,6.575548E3,2.82329E3,1.4146173E3,1.0086156E3,5.7613745E3,6.587785E2,2.1086804E3,2.0232848E2,1.1447808E2,1.961571E2,5.0549365E3,1.6299548E3,1.4921309E3,5.449206E2,5.4020752E1,3.929318E1,1.403742E2,3.9714215E2,9.260819E1,2.5028912E2],"tree_param":{"num_deleted":"0","num_feature":"22","num_nodes":"51","size_leaf_vector":"1"}},{"base_weights":[4.4913438E-1,5.346849E-1,-1.0539395E0,6.2835366E-1,-9.916186E-1,-7.889965E-1,-1.8623308E0,7.33948E-1,-8.9857864E-1,-7.182336E-1,-1.8704002E0,-1.2915894E0,1.153233E-2,-2.1053236E0,-1.2731155E0,8.538082E-1,-8.8846475E-1,-6.004714E-1,-1.9562058E0,-1.1597298E0,1.1543241E-2,-1.455238E0,-2.2112467E0,-1.8455651E0,-9.0207666E-1,-1.4556397E0,-2.2887814E0,1.1656505E-2,-2.2034078E0,9.013443E-3,-1.2433907E-4,-4.803844E-3,-1.5555974E-2,-1.2573615E-2,1.16611095E-2,-1.7447142E-2,-2.8754024E-2,-1.7801413E-2,-7.542857E-3,-1.6947962E-2,-7.4555045E-3,-2.4934584E-2,-1.5584601E-2,-2.0881355E-2,-1.2864209E-2,1.1538876E-2,-1.6994145E-2,-1.1576582E-2,-2.2971537E-2,-2.5693953E-2,-1.9289182E-2,-2.44548E-2,-1.4697093E-2],"categories":[],"categories_nodes":[],"categories_segments":[],"categories_sizes":[],"default_left":[0,0,0,0,0,0,0,0,0,0,0,0,0,0,0,0,0,0,0,0,0,0,0,0,0,0,0,0,0,0,0,0,0,0,0,0,0,0,0,0,0,0,0,0,0,0,0,0,0,0,0,0,0],"id":26,"left_children":[1,3,5,7,9,11,13,15,17,19,21,23,-1,25,27,29,31,33,35,37,-1,39,41,43,45,47,49,-1,51,-1,-1,-1,-1,-1,-1,-1,-1,-1,-1,-1,-1,-1,-1,-1,-1,-1,-1,-1,-1,-1,-1,-1,-1],"loss_changes":[1.4978975E4,1.5757133E4,1.3421045E3,1.6743176E4,1.5297222E3,4.6152026E3,2.1891797E2,1.8887574E4,2.1165771E3,4.021199E3,2.1067432E2,8.086504E2,0E0,1.2709717E2,1.0336047E3,3.724211E3,1.8184121E3,6.0838525E3,2.82021E2,9.885239E2,0E0,1.15092285E2,1.4867676E2,2.0745898E2,3.619711E3,5.8452576E1,8.103906E1,0E0,5.4893555E1,0E0,0E0,0E0,0E0,0E0,0E0,0E0,0E0,0E0,0E0,0E0,0E0,0E0,0E0,0E0,0E0,0E0,0E0,0E0,0E0,0E0,0E0,0E0,0E0],"parents":[2147483647,0,0,1,1,2,2,3,3,4,4,5,5,6,6,7,7,8,8,9,9,10,10,11,11,13,13,14,14,15,15,16,16,17,17,18,18,19,19,21,21,22,22,23,23,24,24,25,25,26,26,28,28],"right_children":[2,4,6,8,10,12,14,16,18,20,22,24,-1,26,28,30,32,34,36,38,-1,40,42,44,46,48,50,-1,52,-1,-1,-1,-1,-1,-1,-1,-1,-1,-1,-1,-1,-1,-1,-1,-1,-1,-1,-1,-1,-1,-1,-1,-1],"split_conditions":[9.9568105E-1,9.9669874E-1,9.966146E-1,9.9594307E-1,9.962126E-1,3.7314217E-3,4.0212907E-3,9.9632275E-1,9.9594307E-1,3.8978201E-3,3.9266812E4,3.8366832E-3,1.153233E-2,1.907734E4,9.957444E-1,9.963333E-1,1E0,3.8366832E-3,9.883897E-1,3.8366832E-3,1.1543241E-2,3.639205E-3,3.7725044E-3,3.7725044E-3,9.9594307E-1,9.3132234E-1,5E1,1.1656505E-2,3.639205E-3,9.013443E-3,-1.2433907E-4,-4.803844E-3,-1.5555974E-2,-1.2573615E-2,1.16611095E-2,-1.7447142E-2,-2.8754024E-2,-1.7801413E-2,-7.542857E-3,-1.6947962E-2,-7.4555045E-3,-2.4934584E-2,-1.5584601E-2,-2.0881355E-2,-1.2864209E-2,1.1538876E-2,-1.6994145E-2,-1.1576582E-2,-2.2971537E-2,-2.5693953E-2,-1.9289182E-2,-2.44548E-2,-1.4697093E-2],"split_indices":[14,16,5,13,6,5,20,15,4,6,2,4,0,2,20,7,0,4,19,4,0,11,18,18,4,21,1,0,11,0,0,0,0,0,0,0,0,0,0,0,0,0,0,0,0,0,0,0,0,0,0,0,0],"split_type":[0,0,0,0,0,0,0,0,0,0,0,0,0,0,0,0,0,0,0,0,0,0,0,0,0,0,0,0,0,0,0,0,0,0,0,0,0,0,0,0,0,0,0,0,0,0,0,0,0,0,0,0,0],"sum_hessian":[1.1648206E5,1.1020989E5,6.2721772E3,1.0383798E5,6.371914E3,4.7254346E3,1.5467427E3,9.712206E4,6.7159146E3,4.8613784E3,1.5105355E3,3.7542725E3,9.711623E2,1.0932944E3,4.534482E2,9.044096E4,6.6811006E3,5.240401E3,1.4755138E3,3.9341885E3,9.2719E2,6.8340063E2,8.271349E2,1.5483824E3,2.20589E3,2.427111E2,8.505833E2,1.2514001E2,3.283082E2,8.573605E4,4.704912E3,4.14646E3,2.5346406E3,3.820183E3,1.4202178E3,1.2018796E3,2.736341E2,1.553551E3,2.3806375E3,5.0989514E2,1.735055E2,5.75511E2,2.5162389E2,1.0779897E3,4.703927E2,6.162975E2,1.5895924E3,1.8099585E2,6.171525E1,4.7446533E2,3.7611798E2,2.4510617E2,8.320204E1],"tree_param":{"num_deleted":"0","num_feature":"22","num_nodes":"53","size_leaf_vector":"1"}},{"base_weights":[4.4438696E-1,5.9572107E-1,-4.0201122E-1,1.8916255E-1,1.1534906E-2,-2.041439E-1,-1.6046427E0,3.3799356E-1,-9.8482794E-1,-6.0697544E-1,1.1525114E-2,-1.8599131E0,-7.660479E-1,-1.737623E-2,1.1524628E-2,-8.0424774E-1,-2.2644765E0,-4.4048327E-1,-1.8673801E0,-2.0420847E0,-1.2808254E0,1.1886735E-2,-1.9640536E0,1.2725454E-3,-1.4769759E-2,-1.159354E-2,1.1713153E-2,-1.4565024E-2,-2.372233E-2,-7.999396E-3,1.1632206E-2,-1.742178E-2,-2.6764404E-2,-1.8914454E-2,-2.5799243E-2,1.1760443E-2,-2.1665925E-2,-2.3883695E-2,-1.3719337E-2],"categories":[],"categories_nodes":[],"categories_segments":[],"categories_sizes":[],"default_left":[0,0,0,0,0,0,0,0,0,0,0,0,0,0,0,0,0,0,0,0,0,0,0,0,0,0,0,0,0,0,0,0,0,0,0,0,0,0,0],"id":27,"left_children":[1,3,5,7,-1,9,11,13,15,17,-1,19,21,23,-1,25,27,29,31,33,35,-1,37,-1,-1,-1,-1,-1,-1,-1,-1,-1,-1,-1,-1,-1,-1,-1,-1],"loss_changes":[1.4852303E4,2.2305465E4,4.184904E3,9.941442E3,0E0,8.255158E3,5.3047656E2,1.4615119E4,1.4774478E3,2.443212E3,0E0,1.982627E2,1.364189E3,7.4218604E3,0E0,3.9379966E3,6.5421875E1,5.932184E3,1.3296289E2,1.1234033E2,1.0000324E3,0E0,8.7408936E1,0E0,0E0,0E0,0E0,0E0,0E0,0E0,0E0,0E0,0E0,0E0,0E0,0E0,0E0,0E0,0E0],"parents":[2147483647,0,0,1,1,2,2,3,3,5,5,6,6,7,7,8,8,9,9,11,11,12,12,13,13,15,15,16,16,17,17,18,18,19,19,20,20,22,22],"right_children":[2,4,6,8,-1,10,12,14,16,18,-1,20,22,24,-1,26,28,30,32,34,36,-1,38,-1,-1,-1,-1,-1,-1,-1,-1,-1,-1,-1,-1,-1,-1,-1,-1],"split_conditions":[9.962126E-1,3.8978201E-3,9.9616325E-1,9.9626744E-1,1.1534906E-2,3.7393358E-3,3.6619438E-3,3.965569E-3,9.963333E-1,9.960929E-1,1.1525114E-2,3.639205E-3,9.880732E-1,9.961869E-1,1.1524628E-2,4.255608E-3,1.3459135E4,3.639205E-3,7.685281E-1,9.9158436E-1,9.9248964E-1,1.1886735E-2,6.59975E4,1.2725454E-3,-1.4769759E-2,-1.159354E-2,1.1713153E-2,-1.4565024E-2,-2.372233E-2,-7.999396E-3,1.1632206E-2,-1.742178E-2,-2.6764404E-2,-1.8914454E-2,-2.5799243E-2,1.1760443E-2,-2.1665925E-2,-2.3883695E-2,-1.3719337E-2],"split_indices":[6,6,19,21,0,19,13,21,7,11,0,11,13,9,0,7,3,11,16,10,11,0,3,0,0,0,0,0,0,0,0,0,0,0,0,0,0,0,0],"split_type":[0,0,0,0,0,0,0,0,0,0,0,0,0,0,0,0,0,0,0,0,0,0,0,0,0,0,0,0,0,0,0,0,0,0,0,0,0,0,0],"sum_hessian":[1.15950195E5,9.836334E4,1.7586852E4,5.689436E4,4.146899E4,1.5103125E4,2.4837266E3,5.0493793E4,6.400568E3,1.1645717E4,3.4574087E3,1.9031769E3,5.8054974E2,3.5155637E4,1.5338154E4,5.6104644E3,7.901035E2,1.0288071E4,1.3576451E3,1.4458193E3,4.573575E2,2.2060622E2,3.5994354E2,3.198698E4,3.168656E3,4.755991E3,8.544735E2,9.4682014E1,6.954215E2,8.404726E3,1.8833453E3,1.1784354E3,1.7920966E2,1.1330024E3,3.1281693E2,1.2110858E2,3.3624893E2,2.0791618E2,1.5202736E2],"tree_param":{"num_deleted":"0","num_feature":"22","num_nodes":"39","size_leaf_vector":"1"}},{"base_weights":[4.4219422E-1,5.280991E-1,-1.0581172E0,6.218013E-1,-9.796524E-1,-7.982567E-1,-1.8576151E0,7.272483E-1,-8.620683E-1,-8.013806E-1,-2.2019007E0,-1.294134E0,1.15071E-2,-2.1265173E0,-1.2169656E0,8.479063E-1,-8.6931E-1,-6.794141E-1,-2.2057705E0,-1.1357223E0,1.16767045E-2,-2.3936796E0,-1.6945145E0,-9.277203E-1,-1.8089898E0,-8.416776E-1,-2.2812748E0,1.1632601E-2,-2.1449482E0,8.954246E-3,-1.6281256E-4,-5.98271E-3,-1.7720243E-2,-1.025404E-2,1.1658643E-2,-2.6370466E-2,-1.5736613E-2,-6.9172177E-3,-1.8376464E-2,-2.2827126E-2,-3.343744E-2,5.3672557E-4,-1.8075794E-2,-1.6905332E-2,1.1506559E-2,-2.0545844E-2,-1.2391697E-2,-5.5440464E-3,-3.439382E-2,-2.3531046E-2,-6.61983E-3,-2.36642E-2,-1.4512784E-2],"categories":[],"categories_nodes":[],"categories_segments":[],"categories_sizes":[],"default_left":[0,0,0,0,0,0,0,0,0,0,0,0,0,0,0,0,0,0,0,0,0,0,0,0,0,0,0,0,0,0,0,0,0,0,0,0,0,0,0,0,0,0,0,0,0,0,0,0,0,0,0,0,0],"id":28,"left_children":[1,3,5,7,9,11,13,15,17,19,21,23,-1,25,27,29,31,33,35,37,-1,39,41,43,45,47,49,-1,51,-1,-1,-1,-1,-1,-1,-1,-1,-1,-1,-1,-1,-1,-1,-1,-1,-1,-1,-1,-1,-1,-1,-1,-1],"loss_changes":[1.4893611E4,1.5441977E4,1.2987485E3,1.6101664E4,1.3917446E3,4.567926E3,2.6175195E2,1.850845E4,1.6742524E3,3.6767534E3,7.5102295E1,7.089844E2,0E0,2.1271533E2,1.00966876E3,3.668129E3,1.6507363E3,3.8396277E3,2.1846875E2,1.4862695E3,0E0,5.435034E1,4.4879272E1,3.4943955E3,2.1649951E2,8.587166E1,1.1043164E2,0E0,4.702112E1,0E0,0E0,0E0,0E0,0E0,0E0,0E0,0E0,0E0,0E0,0E0,0E0,0E0,0E0,0E0,0E0,0E0,0E0,0E0,0E0,0E0,0E0,0E0,0E0],"parents":[2147483647,0,0,1,1,2,2,3,3,4,4,5,5,6,6,7,7,8,8,9,9,10,10,11,11,13,13,14,14,15,15,16,16,17,17,18,18,19,19,21,21,22,22,23,23,24,24,25,25,26,26,28,28],"right_children":[2,4,6,8,10,12,14,16,18,20,22,24,-1,26,28,30,32,34,36,38,-1,40,42,44,46,48,50,-1,52,-1,-1,-1,-1,-1,-1,-1,-1,-1,-1,-1,-1,-1,-1,-1,-1,-1,-1,-1,-1,-1,-1,-1,-1],"split_conditions":[9.9568105E-1,9.9669874E-1,9.966146E-1,9.9594307E-1,9.9556637E-1,3.7314217E-3,4.0212907E-3,9.9632275E-1,9.961869E-1,3.7414075E-3,7.5686445E4,9.962126E-1,1.15071E-2,7.53185E3,9.8425776E-1,9.960929E-1,9.962126E-1,4.2098057E-3,3.8978201E-3,1E0,1.16767045E-2,6.652482E4,7.646197E4,3.8978201E-3,3.7725044E-3,5.9E1,9.678563E4,1.1632601E-2,3.639205E-3,8.954246E-3,-1.6281256E-4,-5.98271E-3,-1.7720243E-2,-1.025404E-2,1.1658643E-2,-2.6370466E-2,-1.5736613E-2,-6.9172177E-3,-1.8376464E-2,-2.2827126E-2,-3.343744E-2,5.3672557E-4,-1.8075794E-2,-1.6905332E-2,1.1506559E-2,-2.0545844E-2,-1.2391697E-2,-5.5440464E-3,-3.439382E-2,-2.3531046E-2,-6.61983E-3,-2.36642E-2,-1.4512784E-2],"split_indices":[14,16,5,13,10,5,20,15,9,10,2,6,0,2,20,11,6,9,6,0,0,2,2,6,18,1,2,0,11,0,0,0,0,0,0,